{"learner":{"attributes":{"scikit_learn":"{\"_estimator_type\": \"classifier\"}"},"feature_names":[],"feature_types":[],"gradient_booster":{"model":{"gbtree_model_param":{"num_parallel_tree":"1","num_trees":"100"},"iteration_indptr":[0,1,2,3,4,5,6,7,8,9,10,11,12,13,14,15,16,17,18,19,20,21,22,23,24,25,26,27,28,29,30,31,32,33,34,35,36,37,38,39,40,41,42,43,44,45,46,47,48,49,50,51,52,53,54,55,56,57,58,59,60,61,62,63,64,65,66,67,68,69,70,71,72,73,74,75,76,77,78,79,80,81,82,83,84,85,86,87,88,89,90,91,92,93,94,95,96,97,98,99,100],"tree_info":[0,0,0,0,0,0,0,0,0,0,0,0,0,0,0,0,0,0,0,0,0,0,0,0,0,0,0,0,0,0,0,0,0,0,0,0,0,0,0,0,0,0,0,0,0,0,0,0,0,0,0,0,0,0,0,0,0,0,0,0,0,0,0,0,0,0,0,0,0,0,0,0,0,0,0,0,0,0,0,0,0,0,0,0,0,0,0,0,0,0,0,0,0,0,0,0,0,0,0,0],"trees":[{"base_weights":[-5.5738056E-1,-8.328796E-1,1.8739305E0,-9.6720517E-1,1.8686805E0,-1.0947279E0,-6.7049146E-1,-1.1109679E0,-5.726491E-1,-3.5671696E-1,-3.4149995E-1,-1.1262118E0,-7.585309E-1,-3.5241988E-1,-2.3250455E-1,-3.563109E-1,-2.8067155E-2,-3.470715E-1,-3.0897957E-1,-3.5390905E-1,-1.4288065E-1,-3.4789106E-1,3.8672872E-2,-9.360304E-2,2.4077164E-1],"categories":[],"categories_nodes":[],"categories_segments":[],"categories_sizes":[],"default_left":[0,0,0,0,0,0,0,0,0,0,0,0,0,0,0,0,0,0,0,0,0,0,0,0,0],"id":0,"left_children":[1,3,-1,5,-1,7,9,11,13,-1,15,17,19,-1,21,-1,23,-1,-1,-1,-1,-1,-1,-1,-1],"loss_changes":[2.0131346E4,9.795548E3,0E0,3.8250098E2,0E0,5.941211E1,5.194409E2,3.6041992E1,4.390587E1,0E0,4.948102E2,1.8254883E1,3.3650223E1,0E0,4.675673E1,0E0,3.2159576E2,0E0,0E0,0E0,0E0,0E0,0E0,0E0,0E0],"parents":[2147483647,0,0,1,1,3,3,5,5,6,6,7,7,8,8,10,10,11,11,12,12,14,14,16,16],"right_children":[2,4,-1,6,-1,8,10,12,14,-1,16,18,20,-1,22,-1,24,-1,-1,-1,-1,-1,-1,-1,-1],"split_conditions":[1.1894791E0,2.0118372E0,1.8739305E0,5.786298E-1,1.8686805E0,3.492727E0,1.6216907E-1,1.8174899E0,1.6216907E-1,-3.5671696E-1,-2.958586E-1,4.5236465E-2,1.6216907E-1,-3.5241988E-1,-2.958586E-1,-3.563109E-1,5.144602E-1,-3.470715E-1,-3.0897957E-1,-3.5390905E-1,-1.4288065E-1,-3.4789106E-1,3.8672872E-2,-9.360304E-2,2.4077164E-1],"split_indices":[4,5,0,0,0,1,4,3,4,0,5,0,4,0,5,0,3,0,0,0,0,0,0,0,0],"split_type":[0,0,0,0,0,0,0,0,0,0,0,0,0,0,0,0,0,0,0,0,0,0,0,0,0],"sum_hessian":[1.0736125E4,1.031916E4,4.1696423E2,1.0127387E4,1.9177402E2,7.0812793E3,3.046107E3,6.8665566E3,2.1472249E2,1.1813763E3,1.8647306E3,6.579768E3,2.8678873E2,7.662909E1,1.380934E2,5.0325583E2,1.3614747E3,4.9808906E3,1.5988773E3,1.1380292E2,1.7298581E2,3.8113243E1,9.9980156E1,1.0151006E3,3.463742E2],"tree_param":{"num_deleted":"0","num_feature":"13","num_nodes":"25","size_leaf_vector":"1"}},{"base_weights":[-5.5152386E-1,-7.621347E-1,5.4161304E-1,-8.724111E-1,5.4206E-1,-1.0440935E0,-6.125774E-1,-1.0765783E0,-8.2582235E-1,-3.3997273E-1,-3.3132038E-1,-3.4033826E-1,-1.0355738E0,-3.3907765E-1,-6.3410604E-1,-3.397375E-1,-8.7647066E-2,-3.223394E-1,-2.5810906E-1,-3.4052545E-1,-1.2860796E-1,-7.596248E-2,2.111028E-1],"categories":[],"categories_nodes":[],"categories_segments":[],"categories_sizes":[],"default_left":[0,0,0,0,0,0,0,0,0,0,0,0,0,0,0,0,0,0,0,0,0,0,0],"id":1,"left_children":[1,3,-1,5,-1,7,9,11,13,-1,15,-1,17,-1,19,-1,21,-1,-1,-1,-1,-1,-1],"loss_changes":[4.652858E3,2.4387178E3,0E0,3.6735156E2,0E0,3.4320312E1,4.8060388E2,9.07666E0,3.7080902E1,0E0,4.1647632E2,0E0,1.6381348E1,0E0,4.0639603E1,0E0,2.146884E2,0E0,0E0,0E0,0E0,0E0,0E0],"parents":[2147483647,0,0,1,1,3,3,5,5,6,6,7,7,8,8,10,10,12,12,14,14,16,16],"right_children":[2,4,-1,6,-1,8,10,12,14,-1,16,-1,18,-1,20,-1,22,-1,-1,-1,-1,-1,-1],"split_conditions":[1.1894791E0,2.0118372E0,5.4161304E-1,3.5638258E-1,5.4206E-1,8.092291E-1,1.6216907E-1,1.6216907E-1,1.6216907E-1,-3.3997273E-1,-2.958586E-1,-3.4033826E-1,7.870218E-4,-3.3907765E-1,-2.958586E-1,-3.397375E-1,9.891137E-1,-3.223394E-1,-2.5810906E-1,-3.4052545E-1,-1.2860796E-1,-7.596248E-2,2.111028E-1],"split_indices":[4,5,0,0,0,3,4,4,4,0,5,0,0,0,5,0,3,0,0,0,0,0,0],"split_type":[0,0,0,0,0,0,0,0,0,0,0,0,0,0,0,0,0,0,0,0,0,0,0],"sum_hessian":[9.369644E3,8.601681E3,7.679628E2,8.248277E3,3.5340338E2,4.964812E3,3.283465E3,4.3182104E3,6.466018E2,1.1505428E3,2.132922E3,1.7795276E3,2.5386829E3,2.4795906E2,3.9864273E2,4.965944E2,1.6363278E3,2.07334E3,4.6534265E2,1.14605934E2,2.840368E2,1.3537709E3,2.8255692E2],"tree_param":{"num_deleted":"0","num_feature":"13","num_nodes":"23","size_leaf_vector":"1"}},{"base_weights":[-4.9733385E-1,-6.858561E-1,4.4033137E-1,-7.855372E-1,4.4024768E-1,-3.2863754E-1,-6.1112154E-1,-9.251052E-1,-2.835827E-1,-9.8738784E-1,-5.527524E-1,-3.2827735E-1,-8.4217444E-2,-3.0593485E-1,-2.394971E-1,-3.2690614E-1,-1.09695315E-1,-5.5668503E-2,2.9194736E-1],"categories":[],"categories_nodes":[],"categories_segments":[],"categories_sizes":[],"default_left":[0,0,0,0,0,0,0,0,0,0,0,0,0,0,0,0,0,0,0],"id":2,"left_children":[1,3,-1,5,-1,-1,7,9,11,13,15,-1,17,-1,-1,-1,-1,-1,-1],"loss_changes":[2.863732E3,1.5147673E3,0E0,3.6367676E2,0E0,0E0,4.4352917E2,5.0539307E1,3.4149146E2,1.0736206E1,3.1541016E1,0E0,1.8207289E2,0E0,0E0,0E0,0E0,0E0,0E0],"parents":[2147483647,0,0,1,1,3,3,6,6,7,7,8,8,9,9,10,10,12,12],"right_children":[2,4,-1,6,-1,-1,8,10,12,14,16,-1,18,-1,-1,-1,-1,-1,-1],"split_conditions":[1.1894791E0,2.0118372E0,4.4033137E-1,1.6216907E-1,4.4024768E-1,-3.2863754E-1,2.6748368E-1,8.092291E-1,-2.958586E-1,7.870218E-4,-2.958586E-1,-3.2827735E-1,4.912588E0,-3.0593485E-1,-2.394971E-1,-3.2690614E-1,-1.09695315E-1,-5.5668503E-2,2.9194736E-1],"split_indices":[4,5,0,4,0,0,0,3,5,0,5,0,2,0,0,0,0,0,0],"split_type":[0,0,0,0,0,0,0,0,0,0,0,0,0,0,0,0,0,0,0],"sum_hessian":[7.72636E3,7.050611E3,6.7574915E2,6.739277E3,3.1133395E2,2.4249946E3,4.314282E3,2.2017896E3,2.1124927E3,1.8848612E3,3.169284E2,4.1608505E2,1.6964076E3,1.6053934E3,2.7946777E2,8.0652245E1,2.3627617E2,1.5487883E3,1.4761925E2],"tree_param":{"num_deleted":"0","num_feature":"13","num_nodes":"19","size_leaf_vector":"1"}},{"base_weights":[-4.462903E-1,-6.1275584E-1,3.9006406E-1,-7.0075274E-1,3.896875E-1,-3.2053936E-1,-5.1964307E-1,-9.018458E-1,-2.4967209E-1,-9.7563016E-1,-5.998572E-1,-3.206775E-1,-8.123472E-2,-2.9339054E-1,2.752764E-1,-2.6767024E-1,-1.03925206E-1,-6.268295E-2,1.872549E-1],"categories":[],"categories_nodes":[],"categories_segments":[],"categories_sizes":[],"default_left":[0,0,0,0,0,0,0,0,0,0,0,0,0,0,0,0,0,0,0],"id":3,"left_children":[1,3,-1,5,-1,-1,7,9,11,13,15,-1,17,-1,-1,-1,-1,-1,-1],"loss_changes":[1.8541891E3,9.801206E2,0E0,3.700752E2,0E0,0E0,3.8472656E2,3.381775E1,3.0180878E2,6.3831787E0,2.2347862E1,0E0,1.6370749E2,0E0,0E0,0E0,0E0,0E0,0E0],"parents":[2147483647,0,0,1,1,3,3,6,6,7,7,8,8,9,9,10,10,12,12],"right_children":[2,4,-1,6,-1,-1,8,10,12,14,16,-1,18,-1,-1,-1,-1,-1,-1],"split_conditions":[1.1894791E0,2.0118372E0,3.9006406E-1,1.6216907E-1,3.896875E-1,-3.2053936E-1,8.968591E-2,4.4341335E-1,-2.958586E-1,4.912588E0,-4.437074E-1,-3.206775E-1,3.492727E0,-2.9339054E-1,2.752764E-1,-2.6767024E-1,-1.03925206E-1,-6.268295E-2,1.872549E-1],"split_indices":[4,5,0,4,0,0,0,3,5,2,0,0,1,0,0,0,0,0,0],"split_type":[0,0,0,0,0,0,0,0,0,0,0,0,0,0,0,0,0,0,0],"sum_hessian":[6.373902E3,5.8198413E3,5.540608E2,5.5643457E3,2.5549532E2,1.8346028E3,3.729743E3,1.5429791E3,2.1867637E3,1.2382172E3,3.0476202E2,3.7201163E2,1.8147521E3,1.2371726E3,1.0445702E0,1.4034023E2,1.644218E2,1.537168E3,2.7758423E2],"tree_param":{"num_deleted":"0","num_feature":"13","num_nodes":"19","size_leaf_vector":"1"}},{"base_weights":[-3.9649487E-1,-5.408032E-1,3.6062863E-1,-6.166053E-1,3.599964E-1,-3.1480542E-1,-4.3437693E-1,-8.5072964E-1,-2.0095605E-1,-9.358046E-1,-5.27173E-1,-3.1472066E-1,-6.3891426E-2,-2.83261E-1,-2.2765243E-2,-3.1330785E-1,-1.0768415E-1,-9.484397E-2,7.9206124E-2],"categories":[],"categories_nodes":[],"categories_segments":[],"categories_sizes":[],"default_left":[0,0,0,0,0,0,0,0,0,0,0,0,0,0,0,0,0,0,0],"id":4,"left_children":[1,3,-1,5,-1,-1,7,9,11,13,15,-1,17,-1,-1,-1,-1,-1,-1],"loss_changes":[1.2240981E3,6.4270483E2,0E0,3.672351E2,0E0,0E0,3.188631E2,3.1959473E1,2.4460509E2,6.6608887E0,2.1179848E1,0E0,1.5005089E2,0E0,0E0,0E0,0E0,0E0,0E0],"parents":[2147483647,0,0,1,1,3,3,6,6,7,7,8,8,9,9,10,10,12,12],"right_children":[2,4,-1,6,-1,-1,8,10,12,14,16,-1,18,-1,-1,-1,-1,-1,-1],"split_conditions":[1.1894791E0,2.0118372E0,3.6062863E-1,1.6216907E-1,3.599964E-1,-3.1480542E-1,4.5236465E-2,4.4341335E-1,-2.958586E-1,3.492727E0,-2.958586E-1,-3.1472066E-1,1.3503972E-1,-2.83261E-1,-2.2765243E-2,-3.1330785E-1,-1.0768415E-1,-9.484397E-2,7.9206124E-2],"split_indices":[4,5,0,4,0,0,0,3,5,1,5,0,3,0,0,0,0,0,0],"split_type":[0,0,0,0,0,0,0,0,0,0,0,0,0,0,0,0,0,0,0],"sum_hessian":[5.302431E3,4.864008E3,4.384232E2,4.6616636E3,2.0234453E2,1.3799275E3,3.2817358E3,1.1779615E3,2.1037744E3,9.312179E2,2.4674365E2,2.9176575E2,1.8120085E3,9.2211383E2,9.104095E0,5.9281864E1,1.8746179E2,1.0241721E3,7.878364E2],"tree_param":{"num_deleted":"0","num_feature":"13","num_nodes":"19","size_leaf_vector":"1"}},{"base_weights":[-3.477027E-1,-4.7032997E-1,3.4184E-1,-3.10673E-1,-2.8126854E-1,-3.5736525E-1,3.4092736E-1,-5.785977E-1,6.0745344E-2,-6.773702E-1,6.1361212E-2,-3.0741978E-1,1.668286E-1,-3.113163E-1,-1.7271212E-1,-3.0412468E-1,6.598457E-2,-4.6930104E-3,1.1669184E-1],"categories":[],"categories_nodes":[],"categories_segments":[],"categories_sizes":[],"default_left":[0,0,0,0,0,0,0,0,0,0,0,0,0,0,0,0,0,0,0],"id":5,"left_children":[1,3,-1,-1,5,7,-1,9,11,13,15,-1,17,-1,-1,-1,-1,-1,-1],"loss_changes":[8.1563556E2,4.4104327E2,0E0,0E0,3.3441418E2,2.719007E2,0E0,1.21542725E2,1.17385925E2,6.040808E1,4.419841E1,0E0,3.7629105E1,0E0,0E0,0E0,0E0,0E0,0E0],"parents":[2147483647,0,0,1,1,4,4,5,5,7,7,8,8,9,9,10,10,12,12],"right_children":[2,4,-1,-1,6,8,-1,10,12,14,16,-1,18,-1,-1,-1,-1,-1,-1],"split_conditions":[1.1894791E0,1.6216907E-1,3.4184E-1,-3.10673E-1,2.0118372E0,8.453264E-1,3.4092736E-1,1.3685342E0,-2.958586E-1,-2.958586E-1,-2.958586E-1,-3.0741978E-1,9.271393E-2,-3.113163E-1,-1.7271212E-1,-3.0412468E-1,6.598457E-2,-4.6930104E-3,1.1669184E-1],"split_indices":[4,4,0,0,5,0,0,3,5,5,5,0,3,0,0,0,0,0,0],"split_type":[0,0,0,0,0,0,0,0,0,0,0,0,0,0,0,0,0,0,0],"sum_hessian":[4.4685435E3,4.128781E3,3.3976242E2,1.0337246E3,3.0950564E3,2.9380977E3,1.5695865E2,1.921174E3,1.0169237E3,1.6642518E3,2.5692218E2,8.976453E1,9.271592E2,3.6418167E2,1.3000702E3,3.233325E1,2.2458893E2,5.0954346E2,4.176157E2],"tree_param":{"num_deleted":"0","num_feature":"13","num_nodes":"19","size_leaf_vector":"1"}},{"base_weights":[-2.9959446E-1,-4.0154976E-1,3.291738E-1,-3.076447E-1,-2.290434E-1,-7.6713955E-1,-5.0312076E-2,-7.8902215E-1,2.942079E-1,-3.0698556E-1,4.5154814E-2,-8.167323E-1,4.9292785E-1,-2.0566566E-2,3.2772514E-1,-2.722079E-1,-1.9307412E-1,-1.7567463E-1,2.5450385E-1,-2.479391E-2,2.41892E-1],"categories":[],"categories_nodes":[],"categories_segments":[],"categories_sizes":[],"default_left":[0,0,0,0,0,0,0,0,0,0,0,0,0,0,0,0,0,0,0,0,0],"id":6,"left_children":[1,3,-1,-1,5,7,9,11,-1,-1,13,15,17,19,-1,-1,-1,-1,-1,-1,-1],"loss_changes":[5.4599634E2,3.8410803E2,0E0,0E0,2.6912827E2,2.7460938E1,1.9529173E2,2.4902191E1,0E0,0E0,1.3183528E2,1.00156555E1,6.329451E0,9.2619064E1,0E0,0E0,0E0,0E0,0E0,0E0,0E0],"parents":[2147483647,0,0,1,1,4,4,5,5,6,6,7,7,10,10,11,11,12,12,13,13],"right_children":[2,4,-1,-1,6,8,10,12,-1,-1,14,16,18,20,-1,-1,-1,-1,-1,-1,-1],"split_conditions":[1.1894791E0,1.6216907E-1,3.291738E-1,-3.076447E-1,-1.3256131E-1,2.0118372E0,-2.958586E-1,3.492727E0,2.942079E-1,-3.0698556E-1,2.0118372E0,-6.215052E-1,-1.9765876E-1,2.053305E0,3.2772514E-1,-2.722079E-1,-1.9307412E-1,-1.7567463E-1,2.5450385E-1,-2.479391E-2,2.41892E-1],"split_indices":[4,4,0,0,0,5,5,1,0,0,5,0,5,3,0,0,0,0,0,0,0],"split_type":[0,0,0,0,0,0,0,0,0,0,0,0,0,0,0,0,0,0,0,0,0],"sum_hessian":[3.8297397E3,3.5698867E3,2.5985324E2,7.721561E2,2.7977305E3,6.9675574E2,2.1009746E3,6.886821E2,8.073625E0,1.8685721E2,1.9141176E3,6.74466E2,1.4216118E1,1.8020118E3,1.1210564E2,4.3995456E2,2.3451144E2,3.363142E0,1.0852976E1,1.677006E3,1.2500584E2],"tree_param":{"num_deleted":"0","num_feature":"13","num_nodes":"21","size_leaf_vector":"1"}},{"base_weights":[-2.531859E-1,-3.053826E-1,-9.399733E-2,-1.8330033E-1,3.2027692E-1,-3.056257E-1,-8.086799E-2,-7.1288675E-1,1.9212825E-2,-7.302991E-1,2.4260443E-1,-3.003012E-2,3.185098E-1,-2.4765725E-1,-1.3601154E-1,-2.8437365E-2,1.7734027E-1],"categories":[],"categories_nodes":[],"categories_segments":[],"categories_sizes":[],"default_left":[0,0,0,0,0,0,0,0,0,0,0,0,0,0,0,0,0],"id":7,"left_children":[1,-1,3,5,-1,-1,7,9,11,13,-1,15,-1,-1,-1,-1,-1],"loss_changes":[4.073999E2,0E0,2.8770746E2,2.2024728E2,0E0,0E0,1.4514902E2,8.901688E0,1.0176913E2,7.8182983E0,0E0,7.6222664E1,0E0,0E0,0E0,0E0,0E0],"parents":[2147483647,0,0,2,2,3,3,6,6,7,7,8,8,9,9,11,11],"right_children":[2,-1,4,6,-1,-1,8,10,12,14,-1,16,-1,-1,-1,-1,-1],"split_conditions":[1.6216907E-1,-3.053826E-1,1.1894791E0,-2.958586E-1,3.2027692E-1,-3.056257E-1,-4.437074E-1,2.0118372E0,2.0118372E0,-7.104041E-1,2.4260443E-1,4.912588E0,3.185098E-1,-2.4765725E-1,-1.3601154E-1,-2.8437365E-2,1.7734027E-1],"split_indices":[4,0,4,5,0,0,0,5,5,0,0,2,0,0,0,0,0],"split_type":[0,0,0,0,0,0,0,0,0,0,0,0,0,0,0,0,0],"sum_hessian":[3.34625E3,5.7560376E2,2.7706462E3,2.5736277E3,1.970187E2,2.801053E2,2.2935222E3,3.1269626E2,1.980826E3,3.096725E2,3.0237708E0,1.8924073E3,8.841866E1,2.289605E2,8.071199E1,1.7145046E3,1.7790271E2],"tree_param":{"num_deleted":"0","num_feature":"13","num_nodes":"17","size_leaf_vector":"1"}},{"base_weights":[-2.096205E-1,-3.0364838E-1,-7.462369E-2,-3.034949E-1,9.182584E-3,-6.1361402E-2,3.1378716E-1,-7.210672E-1,6.5705036E-3,-7.345553E-1,1.9286563E-1,-3.023338E-2,3.1150272E-1,-2.645501E-1,-1.8616441E-1,-3.5083253E-2,1.1635149E-1],"categories":[],"categories_nodes":[],"categories_segments":[],"categories_sizes":[],"default_left":[0,0,0,0,0,0,0,0,0,0,0,0,0,0,0,0,0],"id":8,"left_children":[1,-1,3,-1,5,7,-1,9,11,13,-1,15,-1,-1,-1,-1,-1],"loss_changes":[3.2312775E2,0E0,2.0062975E2,0E0,1.7164638E2,9.8485275E1,0E0,4.246689E0,7.572422E1,2.8717804E0,0E0,6.985233E1,0E0,0E0,0E0,0E0,0E0],"parents":[2147483647,0,0,2,2,4,4,5,5,7,7,8,8,9,9,11,11],"right_children":[2,-1,4,-1,6,8,-1,10,12,14,-1,16,-1,-1,-1,-1,-1],"split_conditions":[1.6216907E-1,-3.0364838E-1,-2.958586E-1,-3.034949E-1,1.1894791E0,-6.215052E-1,3.1378716E-1,2.0118372E0,2.0118372E0,-1.2437974E0,1.9286563E-1,3.492727E0,3.1150272E-1,-2.645501E-1,-1.8616441E-1,-3.5083253E-2,1.1635149E-1],"split_indices":[4,0,5,0,4,0,0,5,5,0,0,1,0,0,0,0,0],"split_type":[0,0,0,0,0,0,0,0,0,0,0,0,0,0,0,0,0],"sum_hessian":[2.9822188E3,4.2847656E2,2.5537422E3,2.087432E2,2.344999E3,2.196487E3,1.4851205E2,2.0416537E2,1.9923217E3,2.0262308E2,1.5422863E0,1.9246394E3,6.7682274E1,8.547233E1,1.1715075E2,1.5946243E3,3.3001517E2],"tree_param":{"num_deleted":"0","num_feature":"13","num_nodes":"17","size_leaf_vector":"1"}},{"base_weights":[-1.7036206E-1,-3.0226743E-1,-5.8359828E-2,-3.0171248E-1,7.954293E-3,-4.616657E-2,3.088483E-1,-1.8298532E-1,2.2623838E-1,-3.832915E-1,8.51512E-2,7.4334234E-2,4.934172E-1,-1.21372364E-1,2.8793573E-1,8.737819E-3,2.3980917E-1,8.378031E-2,-3.556794E-1,1.2375052E-1,2.7630013E-1],"categories":[],"categories_nodes":[],"categories_segments":[],"categories_sizes":[],"default_left":[0,0,0,0,0,0,0,0,0,0,0,0,0,0,0,0,0,0,0,0,0],"id":9,"left_children":[1,-1,3,-1,5,7,-1,9,11,13,15,17,19,-1,-1,-1,-1,-1,-1,-1,-1],"loss_changes":[2.5400635E2,0E0,1.5020804E2,0E0,1.2363758E2,7.920031E1,0E0,7.5997635E1,2.8801586E1,2.3535294E1,2.4209248E1,1.1760106E2,8.524807E0,0E0,0E0,0E0,0E0,0E0,0E0,0E0,0E0],"parents":[2147483647,0,0,2,2,4,4,5,5,7,7,8,8,9,9,10,10,11,11,12,12],"right_children":[2,-1,4,-1,6,8,-1,10,12,14,16,18,20,-1,-1,-1,-1,-1,-1,-1,-1],"split_conditions":[1.6216907E-1,-3.0226743E-1,-2.958586E-1,-3.0171248E-1,1.1894791E0,1.0675737E0,3.088483E-1,3.769014E-1,5.1429E-1,2.0118372E0,3.0842404E0,4.8974004E-1,1.1130679E0,-1.21372364E-1,2.8793573E-1,8.737819E-3,2.3980917E-1,8.378031E-2,-3.556794E-1,1.2375052E-1,2.7630013E-1],"split_indices":[4,0,5,0,4,0,0,3,5,5,3,5,3,0,0,0,0,0,0,0,0],"split_type":[0,0,0,0,0,0,0,0,0,0,0,0,0,0,0,0,0,0,0,0,0],"sum_hessian":[2.708513E3,3.1865198E2,2.3898608E3,1.5541872E2,2.2344421E3,2.122925E3,1.1151709E2,1.4133706E3,7.095545E2,8.087672E2,6.0460333E2,4.5317865E2,2.563759E2,7.968389E2,1.19283085E1,5.615911E2,4.3012234E1,3.904488E2,6.2729855E1,2.1723184E2,3.914404E1],"tree_param":{"num_deleted":"0","num_feature":"13","num_nodes":"21","size_leaf_vector":"1"}},{"base_weights":[-1.3833138E-1,-3.0110577E-1,-4.7821194E-2,-3.0010772E-1,3.653451E-3,-3.7576098E-2,3.0488107E-1,-6.573482E-1,5.3962083E-3,-8.327354E-1,-5.404881E-1,-1.9170167E-2,3.0374306E-1,-2.6542515E-1,-1.0092283E-1,-6.499383E-2,-2.2563682E-1,-4.4706747E-2,4.9951743E-2],"categories":[],"categories_nodes":[],"categories_segments":[],"categories_sizes":[],"default_left":[0,0,0,0,0,0,0,0,0,0,0,0,0,0,0,0,0,0,0],"id":10,"left_children":[1,-1,3,-1,5,7,-1,9,11,13,15,17,-1,-1,-1,-1,-1,-1,-1],"loss_changes":[1.9672324E2,0E0,1.1157272E2,0E0,9.020888E1,5.5300602E1,0E0,2.3093185E0,4.808058E1,1.044445E0,5.569891E0,4.577073E1,0E0,0E0,0E0,0E0,0E0,0E0,0E0],"parents":[2147483647,0,0,2,2,4,4,5,5,7,7,8,8,9,9,10,10,11,11],"right_children":[2,-1,4,-1,6,8,-1,10,12,14,16,18,-1,-1,-1,-1,-1,-1,-1],"split_conditions":[1.6216907E-1,-3.0110577E-1,-2.958586E-1,-3.0010772E-1,1.1894791E0,-7.104041E-1,3.0488107E-1,-1.3326963E0,2.0118372E0,1.5208383E0,-3.2903233E-1,1.1873431E0,3.0374306E-1,-2.6542515E-1,-1.0092283E-1,-6.499383E-2,-2.2563682E-1,-4.4706747E-2,4.9951743E-2],"split_indices":[4,0,5,0,4,0,0,0,5,5,3,6,0,0,0,0,0,0,0],"split_type":[0,0,0,0,0,0,0,0,0,0,0,0,0,0,0,0,0,0,0],"sum_hessian":[2.511292E3,2.3683725E2,2.2744548E3,1.15663765E2,2.158791E3,2.075258E3,8.3533E1,1.3363257E2,1.9416254E3,5.0985725E1,8.264684E1,1.8963475E3,4.5277878E1,4.5440914E1,5.544812E0,3.346404E1,4.9182804E1,1.116042E3,7.8030554E2],"tree_param":{"num_deleted":"0","num_feature":"13","num_nodes":"19","size_leaf_vector":"1"}},{"base_weights":[-1.089799E-1,-3.0005398E-1,-3.669809E-2,-2.985336E-1,3.1067363E-3,-2.814719E-2,3.014645E-1,-5.8845544E-1,9.213893E-3,-6.443612E-1,-2.6286054E-1,-9.163812E-3,2.9900974E-1,-2.1417058E-1,-1.1611603E-1,-1.9984692E-2,-2.2969405E-1,-3.2213476E-2,4.960042E-2],"categories":[],"categories_nodes":[],"categories_segments":[],"categories_sizes":[],"default_left":[0,0,0,0,0,0,0,0,0,0,0,0,0,0,0,0,0,0,0],"id":11,"left_children":[1,-1,3,-1,5,7,-1,9,11,13,15,17,-1,-1,-1,-1,-1,-1,-1],"loss_changes":[1.5195912E2,0E0,8.330489E1,0E0,6.569937E1,4.2605587E1,0E0,2.146469E0,3.464904E1,1.6542549E0,1.955232E0,3.215017E1,0E0,0E0,0E0,0E0,0E0,0E0,0E0],"parents":[2147483647,0,0,2,2,4,4,5,5,7,7,8,8,9,9,10,10,11,11],"right_children":[2,-1,4,-1,6,8,-1,10,12,14,16,18,-1,-1,-1,-1,-1,-1,-1],"split_conditions":[1.6216907E-1,-3.0005398E-1,-2.958586E-1,-2.985336E-1,1.1894791E0,-9.125236E-1,3.014645E-1,1.6898658E0,2.0118372E0,5.3883994E-1,-1.0213614E0,1.0675737E0,2.9900974E-1,-2.1417058E-1,-1.1611603E-1,-1.9984692E-2,-2.2969405E-1,-3.2213476E-2,4.960042E-2],"split_indices":[4,0,5,0,4,3,0,0,5,5,3,0,0,0,0,0,0,0,0],"split_type":[0,0,0,0,0,0,0,0,0,0,0,0,0,0,0,0,0,0,0],"sum_hessian":[2.3585403E3,1.7597807E2,2.1825623E3,8.607454E1,2.0964878E3,2.0340017E3,6.2486008E1,1.2622601E2,1.9077756E3,1.06893074E2,1.9332943E1,1.8738921E3,3.388356E1,8.27534E1,2.4139666E1,1.4720002E1,4.6129413E0,1.1992776E3,6.7461456E2],"tree_param":{"num_deleted":"0","num_feature":"13","num_nodes":"19","size_leaf_vector":"1"}},{"base_weights":[-8.479046E-2,-2.9901624E-1,-2.7847486E-2,-2.9685265E-1,2.732532E-3,-2.0917784E-2,2.9826817E-1,-1.6006611E-1,1.1382616E-1,-3.5029876E-1,-5.7924464E-3,-7.760866E-1,1.3283983E-1,-1.15020536E-1,2.4883978E-1,-1.3811245E-2,1.6609424E-1,5.9642836E-2,-2.7093926E-1,2.8502045E-2,1.6136535E-1],"categories":[],"categories_nodes":[],"categories_segments":[],"categories_sizes":[],"default_left":[0,0,0,0,0,0,0,0,0,0,0,0,0,0,0,0,0,0,0,0,0],"id":12,"left_children":[1,-1,3,-1,5,7,-1,9,11,13,15,17,19,-1,-1,-1,-1,-1,-1,-1,-1],"loss_changes":[1.1640961E2,0E0,6.2097717E1,0E0,4.803179E1,3.7530678E1,0E0,2.8896646E1,1.7311848E1,1.7538376E1,1.2290446E1,2.8326893E0,1.5221071E1,0E0,0E0,0E0,0E0,0E0,0E0,0E0,0E0],"parents":[2147483647,0,0,2,2,4,4,5,5,7,7,8,8,9,9,10,10,11,11,12,12],"right_children":[2,-1,4,-1,6,8,-1,10,12,14,16,18,20,-1,-1,-1,-1,-1,-1,-1,-1],"split_conditions":[1.6216907E-1,-2.9901624E-1,-2.958586E-1,-2.9685265E-1,1.1894791E0,7.910921E-2,2.9826817E-1,7.564276E-1,-7.104041E-1,4.912588E0,3.1361926E0,-1.9765876E-1,2.6549358E0,-1.15020536E-1,2.4883978E-1,-1.3811245E-2,1.6609424E-1,5.9642836E-2,-2.7093926E-1,2.8502045E-2,1.6136535E-1],"split_indices":[4,0,5,0,4,3,0,0,0,2,8,5,3,0,0,0,0,0,0,0,0],"split_type":[0,0,0,0,0,0,0,0,0,0,0,0,0,0,0,0,0,0,0,0,0],"sum_hessian":[2.241284E3,1.3075557E2,2.1105283E3,6.407823E1,2.0464501E3,1.999729E3,4.672102E1,9.8369354E2,1.0160355E3,4.3993964E2,5.437539E2,2.0421328E1,9.956142E2,4.2858887E2,1.13507595E1,5.0811853E2,3.5635365E1,2.2892773E0,1.813205E1,9.116925E2,8.392167E1],"tree_param":{"num_deleted":"0","num_feature":"13","num_nodes":"21","size_leaf_vector":"1"}},{"base_weights":[-6.6497244E-2,-2.979008E-1,-2.233543E-2,-2.9492617E-1,9.3218277E-4,-1.9523272E-2,2.9764205E-1,-7.342059E-2,2.1958303E-1,4.2804506E-2,-2.2157846E-1,8.034111E-2,4.7174072E-1,-2.9643614E-2,5.4937396E-2,-3.322655E-1,1.1615584E-3,7.187636E-2,-3.610399E-1,1.630454E-1,4.1108355E-2],"categories":[],"categories_nodes":[],"categories_segments":[],"categories_sizes":[],"default_left":[0,0,0,0,0,0,0,0,0,0,0,0,0,0,0,0,0,0,0,0,0],"id":13,"left_children":[1,-1,3,-1,5,7,-1,9,11,13,15,17,19,-1,-1,-1,-1,-1,-1,-1,-1],"loss_changes":[8.8293304E1,0E0,4.6079403E1,0E0,4.084493E1,2.5452837E1,0E0,2.7758492E1,1.2718817E1,1.7979942E1,1.4153802E2,4.8388817E1,3.0244694E0,0E0,0E0,0E0,0E0,0E0,0E0,0E0,0E0],"parents":[2147483647,0,0,2,2,4,4,5,5,7,7,8,8,9,9,10,10,11,11,12,12],"right_children":[2,-1,4,-1,6,8,-1,10,12,14,16,18,20,-1,-1,-1,-1,-1,-1,-1,-1],"split_conditions":[1.6216907E-1,-2.979008E-1,-2.958586E-1,-2.9492617E-1,2.0118372E0,3.492727E0,2.9764205E-1,4.8974004E-1,5.1429E-1,5.1899772E-2,5.1429E-1,4.8974004E-1,4.912588E0,-2.9643614E-2,5.4937396E-2,-3.322655E-1,1.1615584E-3,7.187636E-2,-3.610399E-1,1.630454E-1,4.1108355E-2],"split_indices":[4,0,5,0,5,1,0,5,5,3,5,5,2,0,0,0,0,0,0,0,0],"split_type":[0,0,0,0,0,0,0,0,0,0,0,0,0,0,0,0,0,0,0,0,0],"sum_hessian":[2.1574497E3,9.717857E1,2.0602712E3,4.77407E1,2.0125305E3,1.9727985E3,3.9732132E1,1.6104723E3,3.623261E2,9.028929E2,7.0757947E2,2.342767E2,1.280494E2,4.4951782E2,4.5337506E2,1.427376E2,5.6484186E2,2.0914696E2,2.512975E1,1.04933685E2,2.3115717E1],"tree_param":{"num_deleted":"0","num_feature":"13","num_nodes":"21","size_leaf_vector":"1"}},{"base_weights":[-5.437075E-2,-2.9661268E-1,-2.0501183E-2,-2.9260585E-1,-2.896475E-3,-1.8870518E-2,2.935724E-1,-2.9397896E-2,2.8976062E-1,-4.6853676E-1,-5.6297923E-3,-2.3557211E-1,-1.1808065E-1,-1.2130859E-2,8.723019E-2],"categories":[],"categories_nodes":[],"categories_segments":[],"categories_sizes":[],"default_left":[0,0,0,0,0,0,0,0,0,0,0,0,0,0,0],"id":14,"left_children":[1,-1,3,-1,5,7,-1,9,-1,11,13,-1,-1,-1,-1],"loss_changes":[6.627455E1,0E0,3.399768E1,0E0,3.117134E1,2.0307722E1,0E0,2.0209305E1,0E0,2.0502892E0,1.8974104E1,0E0,0E0,0E0,0E0],"parents":[2147483647,0,0,2,2,4,4,5,5,7,7,9,9,10,10],"right_children":[2,-1,4,-1,6,8,-1,10,-1,12,14,-1,-1,-1,-1],"split_conditions":[1.6216907E-1,-2.9661268E-1,-2.958586E-1,-2.9260585E-1,1.1894791E0,2.0118372E0,2.935724E-1,-9.125236E-1,2.8976062E-1,-1.4660447E0,4.912588E0,-2.3557211E-1,-1.1808065E-1,-1.2130859E-2,8.723019E-2],"split_indices":[4,0,5,0,4,5,0,3,0,0,2,0,0,0,0],"split_type":[0,0,0,0,0,0,0,0,0,0,0,0,0,0,0],"sum_hessian":[2.0939124E3,7.226245E1,2.0216499E3,3.5613743E1,1.9860361E3,1.955195E3,3.0841225E1,1.9354739E3,1.9721083E1,9.84167E1,1.8370571E3,1.7017004E1,8.13997E1,1.6447723E3,1.922848E2],"tree_param":{"num_deleted":"0","num_feature":"13","num_nodes":"15","size_leaf_vector":"1"}},{"base_weights":[-4.1079007E-2,-2.9504713E-1,-1.5023639E-2,-2.8972796E-1,-1.5953522E-3,-1.3662814E-2,2.8976893E-1,-9.712646E-2,9.5848955E-2,-3.6406666E-1,-3.7081026E-2,-5.600803E-1,1.16376996E-1,-1.5081744E-1,-6.653562E-2,-2.126229E-2,9.64294E-2,-2.3984422E-1,3.8902197E-2,2.1079099E-2,8.8357486E-2],"categories":[],"categories_nodes":[],"categories_segments":[],"categories_sizes":[],"default_left":[0,0,0,0,0,0,0,0,0,0,0,0,0,0,0,0,0,0,0,0,0],"id":15,"left_children":[1,-1,3,-1,5,7,-1,9,11,13,15,17,19,-1,-1,-1,-1,-1,-1,-1,-1],"loss_changes":[4.9997513E1,0E0,2.5314623E1,0E0,2.2854021E1,1.7679647E1,0E0,1.7579342E1,1.1330611E1,3.8626328E0,1.0892068E1,4.324548E0,6.6506042E0,0E0,0E0,0E0,0E0,0E0,0E0,0E0,0E0],"parents":[2147483647,0,0,2,2,4,4,5,5,7,7,8,8,9,9,10,10,11,11,12,12],"right_children":[2,-1,4,-1,6,8,-1,10,12,14,16,18,20,-1,-1,-1,-1,-1,-1,-1,-1],"split_conditions":[1.6216907E-1,-2.9504713E-1,-2.958586E-1,-2.8972796E-1,1.1894791E0,1.1873431E0,2.8976893E-1,-3.184509E-1,-1.0215502E0,8.453264E-1,2.4947026E0,5.3883994E-1,3.1068413E0,-1.5081744E-1,-6.653562E-2,-2.126229E-2,9.64294E-2,-2.3984422E-1,3.8902197E-2,2.1079099E-2,8.8357486E-2],"split_indices":[4,0,5,0,4,6,0,3,0,0,3,5,10,0,0,0,0,0,0,0,0],"split_type":[0,0,0,0,0,0,0,0,0,0,0,0,0,0,0,0,0,0,0,0,0],"sum_hessian":[2.0357557E3,5.378081E1,1.981975E3,2.6615997E1,1.955359E3,1.9322441E3,2.3114876E1,1.0965948E3,8.3564923E2,2.0044151E2,8.961534E2,2.4561325E1,8.110879E2,1.0023027E2,1.0021124E2,8.196918E2,7.646161E1,1.8114908E1,6.4464164E0,6.4541705E2,1.6567082E2],"tree_param":{"num_deleted":"0","num_feature":"13","num_nodes":"21","size_leaf_vector":"1"}},{"base_weights":[-3.190878E-2,-2.930838E-1,-1.2071097E-2,-2.2843108E-2,2.8868738E-1,-2.861117E-1,-1.2667719E-2,6.220603E-2,-1.1375447E-1,2.9329062E-2,4.0410084E-1,-3.2855272E-1,6.6799566E-2,-1.0695903E-3,8.7203324E-2,2.244315E-1,3.637604E-2,-2.4280103E-2,5.705991E-2],"categories":[],"categories_nodes":[],"categories_segments":[],"categories_sizes":[],"default_left":[0,0,0,0,0,0,0,0,0,0,0,0,0,0,0,0,0,0,0],"id":16,"left_children":[1,-1,3,5,-1,-1,7,9,11,13,15,-1,17,-1,-1,-1,-1,-1,-1],"loss_changes":[3.745441E1,0E0,2.0577082E1,1.8344124E1,0E0,0E0,1.4524119E1,1.2381031E1,1.447568E2,8.657106E0,9.312527E0,0E0,1.2604714E1,0E0,0E0,0E0,0E0,0E0,0E0],"parents":[2147483647,0,0,2,2,3,3,6,6,7,7,8,8,9,9,10,10,12,12],"right_children":[2,-1,4,6,-1,-1,8,10,12,14,16,-1,18,-1,-1,-1,-1,-1,-1],"split_conditions":[1.6216907E-1,-2.930838E-1,2.0118372E0,-2.958586E-1,2.8868738E-1,-2.861117E-1,4.8974004E-1,2.1470263E0,5.1429E-1,4.912588E0,5.357364E-1,-3.2855272E-1,8.00877E-1,-1.0695903E-3,8.7203324E-2,2.244315E-1,3.637604E-2,-2.4280103E-2,5.705991E-2],"split_indices":[4,0,5,5,0,0,5,3,5,2,4,0,0,0,0,0,0,0,0],"split_type":[0,0,0,0,0,0,0,0,0,0,0,0,0,0,0,0,0,0,0],"sum_hessian":[1.9974802E3,4.0075947E1,1.9574043E3,1.9369669E3,2.0437479E1,1.994166E1,1.9170251E3,1.101524E3,8.155011E2,1.00588306E3,9.564101E1,1.2592988E2,6.895712E2,8.943083E2,1.11574776E2,4.2412834E1,5.322817E1,3.139991E2,3.755721E2],"tree_param":{"num_deleted":"0","num_feature":"13","num_nodes":"19","size_leaf_vector":"1"}},{"base_weights":[-2.6855258E-2,-2.9058257E-1,-1.1778005E-2,-2.0141788E-2,2.8363714E-1,-2.8156295E-1,-1.2409879E-2,-7.31057E-2,9.2816934E-2,-1.4205725E-1,1.2650594E-1,1.6265739E-2,2.8145424E-1,-6.450681E-2,4.4532884E-2,-1.9982477E-1,4.4060666E-2,-2.482955E-2,5.4893646E-2,-9.820053E-2,9.378275E-2],"categories":[],"categories_nodes":[],"categories_segments":[],"categories_sizes":[],"default_left":[0,0,0,0,0,0,0,0,0,0,0,0,0,0,0,0,0,0,0,0,0],"id":17,"left_children":[1,-1,3,5,-1,-1,7,9,11,13,15,17,19,-1,-1,-1,-1,-1,-1,-1,-1],"loss_changes":[2.7857252E1,0E0,1.5493223E1,1.36012125E1,0E0,0E0,1.2154814E1,1.6628084E1,1.0049177E1,1.9054682E1,5.1070347E0,8.209064E0,3.9130487E0,0E0,0E0,0E0,0E0,0E0,0E0,0E0,0E0],"parents":[2147483647,0,0,2,2,3,3,6,6,7,7,8,8,9,9,10,10,11,11,12,12],"right_children":[2,-1,4,6,-1,-1,8,10,12,14,16,18,20,-1,-1,-1,-1,-1,-1,-1,-1],"split_conditions":[1.6216907E-1,-2.9058257E-1,1.1894791E0,-2.958586E-1,2.8363714E-1,-2.8156295E-1,1.3603402E0,3.1068413E0,1.200922E0,3.1361926E0,-3.548085E-1,1.1873431E0,-9.306632E-1,-6.450681E-2,4.4532884E-2,-1.9982477E-1,4.4060666E-2,-2.482955E-2,5.4893646E-2,-9.820053E-2,9.378275E-2],"split_indices":[4,0,4,5,0,0,11,10,0,8,0,6,3,0,0,0,0,0,0,0,0],"split_type":[0,0,0,0,0,0,0,0,0,0,0,0,0,0,0,0,0,0,0,0,0],"sum_hessian":[1.9617126E3,2.9915125E1,1.9317975E3,1.9160353E3,1.5762281E1,1.4991146E1,1.9010441E3,1.2058206E3,6.952235E2,8.964497E2,3.093709E2,4.95308E2,1.9991548E2,7.166958E2,1.7975386E2,6.9548793E0,3.0241605E2,3.1104474E2,1.8426326E2,9.269829E0,1.9064566E2],"tree_param":{"num_deleted":"0","num_feature":"13","num_nodes":"21","size_leaf_vector":"1"}},{"base_weights":[-2.0985767E-2,-2.873819E-1,-9.542752E-3,-1.7183457E-2,2.8237802E-1,-2.7588603E-1,-1.1294834E-2,-2.6895728E-2,2.9467237E-1,3.699739E-2,-1.1654212E-1,7.059742E-2,6.718732E-1,1.3347222E-3,6.816993E-2,-3.197988E-1,4.2236466E-3,5.5142697E-2,-2.7180982E-1,-1.952798E-1,2.5721943E-1],"categories":[],"categories_nodes":[],"categories_segments":[],"categories_sizes":[],"default_left":[0,0,0,0,0,0,0,0,0,0,0,0,0,0,0,0,0,0,0,0,0],"id":18,"left_children":[1,-1,3,5,-1,-1,7,9,11,13,15,17,19,-1,-1,-1,-1,-1,-1,-1,-1],"loss_changes":[2.0777576E1,0E0,1.3938382E1,1.0097558E1,0E0,0E0,9.033292E0,1.0314116E1,7.712871E0,6.510928E0,9.293813E1,6.658518E0,8.92642E0,0E0,0E0,0E0,0E0,0E0,0E0,0E0,0E0],"parents":[2147483647,0,0,2,2,3,3,6,6,7,7,8,8,9,9,10,10,11,11,12,12],"right_children":[2,-1,4,6,-1,-1,8,10,12,14,16,18,20,-1,-1,-1,-1,-1,-1,-1,-1],"split_conditions":[1.6216907E-1,-2.873819E-1,2.0118372E0,-2.958586E-1,2.8237802E-1,-2.7588603E-1,4.8973856E0,4.8974004E-1,5.1429E-1,1.6466751E0,5.1429E-1,4.8974004E-1,-4.5752135E-1,1.3347222E-3,6.816993E-2,-3.197988E-1,4.2236466E-3,5.5142697E-2,-2.7180982E-1,-1.952798E-1,2.5721943E-1],"split_indices":[4,0,5,5,0,0,9,5,5,3,5,5,3,0,0,0,0,0,0,0,0],"split_type":[0,0,0,0,0,0,0,0,0,0,0,0,0,0,0,0,0,0,0,0,0],"sum_hessian":[1.9377743E3,2.2382492E1,1.9153917E3,1.9010964E3,1.429539E1,1.131875E1,1.8897776E3,1.7989628E3,9.081482E1,1.050695E3,7.4826794E2,5.7715984E1,3.3098835E1,8.980643E2,1.5263062E2,8.962721E1,6.586407E2,5.2447975E1,5.268009E0,3.7626026E0,2.9336233E1],"tree_param":{"num_deleted":"0","num_feature":"13","num_nodes":"21","size_leaf_vector":"1"}},{"base_weights":[-1.8026529E-2,-2.833011E-1,-9.34203E-3,-1.5231205E-2,2.7605897E-1,-2.6203087E-1,2.2040638E-3,-3.2843378E-1,7.667123E-1,-2.3208873E-3,2.6797E-1,-3.595361E-1,3.8509774E-1,1.9808652E-1,4.8406887E-1,-4.920616E-2,7.678861E-2,-8.474024E-2,-1.8368474E-1,2.734308E-1,-1.1413773E-1,2.008837E-1,-6.5159984E-2,-3.131472E-2,2.795427E-2,-4.7325775E-2,4.1909102E-2],"categories":[],"categories_nodes":[],"categories_segments":[],"categories_sizes":[],"default_left":[0,0,0,0,0,0,0,0,0,0,0,0,0,0,0,0,0,0,0,0,0,0,0,0,0,0,0],"id":19,"left_children":[1,-1,3,5,-1,7,9,11,13,15,-1,17,19,21,-1,23,25,-1,-1,-1,-1,-1,-1,-1,-1,-1,-1],"loss_changes":[1.5414688E1,0E0,1.0417576E1,8.131065E0,0E0,8.769174E0,7.1215405E0,2.7532663E0,3.4652748E0,6.5238647E0,0E0,2.036336E0,2.5243363E0,1.2894892E0,0E0,8.685868E0,9.679412E0,0E0,0E0,0E0,0E0,0E0,0E0,0E0,0E0,0E0,0E0],"parents":[2147483647,0,0,2,2,3,3,5,5,6,6,7,7,8,8,9,9,11,11,12,12,13,13,15,15,16,16],"right_children":[2,-1,4,6,-1,8,10,12,14,16,-1,18,20,22,-1,24,26,-1,-1,-1,-1,-1,-1,-1,-1,-1,-1],"split_conditions":[1.6216907E-1,-2.833011E-1,1.1894791E0,-4.437074E-1,2.7605897E-1,3.8032768E0,2.0118372E0,3.492727E0,8.3341527E-1,1.3603402E0,2.6797E-1,8.8329923E-1,1.1873431E0,1.705906E-1,4.8406887E-1,3.1068413E0,-1.15891755E-1,-8.474024E-2,-1.8368474E-1,2.734308E-1,-1.1413773E-1,2.008837E-1,-6.5159984E-2,-3.131472E-2,2.795427E-2,-4.7325775E-2,4.1909102E-2],"split_indices":[4,0,4,0,0,12,5,1,3,11,0,3,6,5,0,10,3,0,0,0,0,0,0,0,0,0,0],"split_type":[0,0,0,0,0,0,0,0,0,0,0,0,0,0,0,0,0,0,0,0,0,0,0,0,0,0,0],"sum_hessian":[1.9162639E3,1.6798101E1,1.8994658E3,1.8884849E3,1.0981051E1,1.23684044E2,1.7648008E3,1.1682407E2,6.8599715E0,1.7568761E3,7.9246235E0,1.1241989E2,4.404186E0,4.842404E0,2.0175679E0,1.1033434E3,6.535328E2,8.777324E1,2.464665E1,2.496933E0,1.9072526E0,1.9808689E0,2.8615348E0,7.953898E2,3.0795358E2,1.378985E2,5.156343E2],"tree_param":{"num_deleted":"0","num_feature":"13","num_nodes":"27","size_leaf_vector":"1"}},{"base_weights":[-1.3278568E-2,-2.781498E-1,-6.643467E-3,-1.1193502E-2,2.694048E-1,-2.679967E-1,-6.780466E-3,-6.07729E-2,6.030194E-2,-8.416766E-2,2.1511202E-1,-6.5089715E-1,6.926034E-2,-8.318128E-2,-1.4104191E-2,4.0766674E-1,2.5873696E-2,-2.4188453E-1,3.7163403E-2,8.8745736E-2,1.4355648E-2],"categories":[],"categories_nodes":[],"categories_segments":[],"categories_sizes":[],"default_left":[0,0,0,0,0,0,0,0,0,0,0,0,0,0,0,0,0,0,0,0,0],"id":20,"left_children":[1,-1,3,5,-1,-1,7,9,11,13,15,17,19,-1,-1,-1,-1,-1,-1,-1,-1],"loss_changes":[1.1489212E1,0E0,7.7613287E0,7.2917585E0,0E0,0E0,6.7634416E0,6.6954093E0,5.3509088E0,6.834339E0,1.1844273E1,1.3586068E0,3.979155E0,0E0,0E0,0E0,0E0,0E0,0E0,0E0,0E0],"parents":[2147483647,0,0,2,2,3,3,6,6,7,7,8,8,9,9,10,10,11,11,12,12],"right_children":[2,-1,4,6,-1,-1,8,10,12,14,16,18,20,-1,-1,-1,-1,-1,-1,-1,-1],"split_conditions":[1.6216907E-1,-2.781498E-1,2.0118372E0,-2.958586E-1,2.694048E-1,-2.679967E-1,1.1873431E0,4.912588E0,-1.2722929E0,-3.184509E-1,-1.9765876E-1,1.0026954E0,-4.42405E-1,-8.318128E-2,-1.4104191E-2,4.0766674E-1,2.5873696E-2,-2.4188453E-1,3.7163403E-2,8.8745736E-2,1.4355648E-2],"split_indices":[4,0,5,5,0,0,6,2,3,3,5,4,3,0,0,0,0,0,0,0,0],"split_type":[0,0,0,0,0,0,0,0,0,0,0,0,0,0,0,0,0,0,0,0,0],"sum_hessian":[1.8947576E3,1.2657351E1,1.8821002E3,1.8736642E3,8.436071E0,8.324073E0,1.8653401E3,1.0335575E3,8.317826E2,9.534047E2,8.0152824E1,9.45557E0,8.22327E2,1.527962E2,8.006085E2,7.149669E0,7.300315E1,7.8421307E0,1.6134397E0,6.98888E1,7.524382E2],"tree_param":{"num_deleted":"0","num_feature":"13","num_nodes":"21","size_leaf_vector":"1"}},{"base_weights":[-1.0281732E-2,-2.717462E-1,-5.21528E-3,-9.490479E-3,2.671393E-1,-2.5941637E-1,-6.0950434E-3,-1.8153023E-2,2.1971637E-1,-6.571007E-2,5.4351516E-2,3.3528957E-1,-2.846114E-1,-3.2196954E-2,4.2193547E-2,6.335812E-3,7.794966E-2,-3.601363E-2,1.4497727E-1,2.5444394E-1,-1.4184302E-1],"categories":[],"categories_nodes":[],"categories_segments":[],"categories_sizes":[],"default_left":[0,0,0,0,0,0,0,0,0,0,0,0,0,0,0,0,0,0,0,0,0],"id":21,"left_children":[1,-1,3,5,-1,-1,7,9,11,13,15,17,19,-1,-1,-1,-1,-1,-1,-1,-1],"loss_changes":[8.53774E0,0E0,7.18122E0,5.4112334E0,0E0,0E0,5.0654435E0,6.0915E0,5.5922594E0,9.174778E0,4.773867E0,5.2582474E0,4.2645874E0,0E0,0E0,0E0,0E0,0E0,0E0,0E0,0E0],"parents":[2147483647,0,0,2,2,3,3,6,6,7,7,8,8,9,9,10,10,11,11,12,12],"right_children":[2,-1,4,6,-1,-1,8,10,12,14,16,18,20,-1,-1,-1,-1,-1,-1,-1,-1],"split_conditions":[1.6216907E-1,-2.717462E-1,1.1894791E0,-2.958586E-1,2.671393E-1,-2.5941637E-1,4.8973856E0,1.3603402E0,4.912588E0,3.1361926E0,1.8174899E0,-1.0074672E-3,5.3418034E-1,-3.2196954E-2,4.2193547E-2,6.335812E-3,7.794966E-2,-3.601363E-2,1.4497727E-1,2.5444394E-1,-1.4184302E-1],"split_indices":[4,0,4,5,0,0,9,11,2,8,3,3,0,0,0,0,0,0,0,0,0],"split_type":[0,0,0,0,0,0,0,0,0,0,0,0,0,0,0,0,0,0,0,0,0],"sum_hessian":[1.8817592E3,9.585875E0,1.8721732E3,1.8642643E3,7.9089785E0,6.369084E0,1.8578951E3,1.7645885E3,9.330669E1,1.065682E3,6.989065E2,7.618345E1,1.712324E1,8.872427E2,1.7843935E2,6.025582E2,9.634826E1,1.8731272E1,5.745217E1,1.9399747E0,1.5183266E1],"tree_param":{"num_deleted":"0","num_feature":"13","num_nodes":"21","size_leaf_vector":"1"}},{"base_weights":[-7.908662E-3,-2.4034662E-2,2.0321338E-1,-2.1218614E-1,-1.493779E-3,4.847832E-1,-4.8496661E-4,-2.5558445E-1,3.0074462E-1,-1.2344674E-2,2.7059036E-1,-5.4800067E-2,5.8319575E-1,-8.6191684E-1,7.968004E-2,-2.2197147E-1,-6.8534523E-1,8.537708E-1,-1.322467E-1,-4.0297966E-2,1.0291393E-1,4.7867396E-1,2.0231828E-2,3.4892628E-1,-6.731654E-1,3.6133403E-1,8.5632306E-1,-2.9789484E-1,-5.9668347E-2,-5.805741E-2,6.0967046E-1,-8.8230394E-2,-3.4620947E-1,-7.8059816E-1,-2.3602627E-1,4.6417695E-2,1.3611476E0,5.084495E-1,-3.8276586E-1,-1.213879E-1,4.000256E-2,1.3349947E0,8.832733E-2,6.480486E-1,-3.6004478E-1,2.888559E-1,-3.5842907E-1,-1.675701E-1,6.6878253E-1,-4.4627387E-2,-2.4946874E-1,5.048398E-1,-5.8381474E-1,1.2864789E0,4.35246E-1,3.979411E-3,-8.34587E-1,1.2100176E0,1.8413188E-1,-1.3926171E-1,-1.5828476E-3,-1.4529555E-1,-4.6753936E-2,-4.5516226E-2,-2.89724E-1,-2.0074748E-1,1.1224042E-1,2.4970084E-1,-1.9601604E-1,5.810998E-1,4.988635E-2,4.0861893E-1,-1.7930304E-1,-2.2421764E-1,8.019793E-2,-6.217771E-2,3.676098E-2,-1.1950369E-1,1.6987082E-2,-4.4181854E-2,6.814065E-1,-4.52055E-3,7.1001574E-2,4.1701737E-1,1.5153125E-1,-1.8068324E-1,1.02376804E-1,-4.2296186E-2,1.5054718E-1,-2.0915408E-1,2.892579E-1,-2.49124E-2,3.675423E-1,2.5579897E-1,6.609982E-2,-2.0680434E-1,-5.3101532E-2,2.1488027E-1,4.7333384E-1,2.3349263E-1,-1.2622952E-1,-1.95651E-2,1.2726222E-1,-7.429335E-2,-2.8855047E-1,5.232893E-1,1.1863944E-2,2.7040523E-1,-2.4622772E-2],"categories":[],"categories_nodes":[],"categories_segments":[],"categories_sizes":[],"default_left":[0,0,0,0,0,0,0,0,0,0,0,0,0,0,0,0,0,0,0,0,0,0,0,0,0,0,0,0,0,0,0,0,0,0,0,0,0,0,0,0,0,0,0,0,0,0,0,0,0,0,0,0,0,0,0,0,0,0,0,0,0,0,0,0,0,0,0,0,0,0,0,0,0,0,0,0,0,0,0,0,0,0,0,0,0,0,0,0,0,0,0,0,0,0,0,0,0,0,0,0,0,0,0,0,0,0,0,0,0],"id":22,"left_children":[1,3,5,7,9,11,13,15,17,19,21,23,25,27,29,31,33,35,37,39,41,43,45,47,49,51,53,-1,-1,55,57,59,61,63,65,67,69,71,73,75,77,79,81,83,85,87,89,-1,91,-1,-1,93,95,97,99,101,103,105,107,-1,-1,-1,-1,-1,-1,-1,-1,-1,-1,-1,-1,-1,-1,-1,-1,-1,-1,-1,-1,-1,-1,-1,-1,-1,-1,-1,-1,-1,-1,-1,-1,-1,-1,-1,-1,-1,-1,-1,-1,-1,-1,-1,-1,-1,-1,-1,-1,-1,-1],"loss_changes":[6.3843217E0,7.3864994E0,7.6327486E0,4.2246437E0,4.59836E0,2.998269E0,5.4698358E0,2.3373575E0,3.7034845E0,4.8293867E0,3.10214E0,2.6142495E0,2.5586166E0,3.8850927E-1,5.325665E0,2.6497974E0,3.3029413E-1,2.6890516E0,1.6834706E0,7.858133E0,5.140774E0,4.8610697E0,2.967546E0,2.2384522E0,2.1736526E-1,4.0716023E0,3.15032E0,0E0,0E0,2.818288E0,3.6184258E0,2.4623265E0,2.1141796E0,9.579725E-1,1.1849166E0,2.5393095E0,2.4924784E0,3.6815703E0,1.9157397E0,1.2599819E1,4.443051E0,4.9879646E0,4.4555407E0,2.2104874E0,1.2445354E0,1.6292937E0,6.1075034E0,0E0,2.279115E0,0E0,0E0,2.2575474E0,5.547774E-2,4.680462E-1,3.8111172E0,1.6300626E0,8.502865E-2,3.719081E0,1.9791598E0,0E0,0E0,0E0,0E0,0E0,0E0,0E0,0E0,0E0,0E0,0E0,0E0,0E0,0E0,0E0,0E0,0E0,0E0,0E0,0E0,0E0,0E0,0E0,0E0,0E0,0E0,0E0,0E0,0E0,0E0,0E0,0E0,0E0,0E0,0E0,0E0,0E0,0E0,0E0,0E0,0E0,0E0,0E0,0E0,0E0,0E0,0E0,0E0,0E0,0E0],"parents":[2147483647,0,0,1,1,2,2,3,3,4,4,5,5,6,6,7,7,8,8,9,9,10,10,11,11,12,12,13,13,14,14,15,15,16,16,17,17,18,18,19,19,20,20,21,21,22,22,23,23,24,24,25,25,26,26,29,29,30,30,31,31,32,32,33,33,34,34,35,35,36,36,37,37,38,38,39,39,40,40,41,41,42,42,43,43,44,44,45,45,46,46,48,48,51,51,52,52,53,53,54,54,55,55,56,56,57,57,58,58],"right_children":[2,4,6,8,10,12,14,16,18,20,22,24,26,28,30,32,34,36,38,40,42,44,46,48,50,52,54,-1,-1,56,58,60,62,64,66,68,70,72,74,76,78,80,82,84,86,88,90,-1,92,-1,-1,94,96,98,100,102,104,106,108,-1,-1,-1,-1,-1,-1,-1,-1,-1,-1,-1,-1,-1,-1,-1,-1,-1,-1,-1,-1,-1,-1,-1,-1,-1,-1,-1,-1,-1,-1,-1,-1,-1,-1,-1,-1,-1,-1,-1,-1,-1,-1,-1,-1,-1,-1,-1,-1,-1,-1],"split_conditions":[3.8032768E0,-1.3256131E-1,8.00877E-1,3.492727E0,2.8393555E0,2.5556087E-1,8.897759E-1,2.8393555E0,1.1448121E0,3.1068413E0,3.4168E0,8.8329923E-1,8.3341527E-1,9.0930367E-1,1.0510907E0,4.1609016E-1,3.956454E0,-3.548085E-1,4.7840808E-2,1.3603402E0,-4.366242E-2,1.0026954E0,7.564276E-1,-8.811186E-2,-4.366242E-2,5.325998E-1,1.6965591E0,-2.9789484E-1,-5.9668347E-2,8.576014E-1,5.357364E-1,2.5556087E-1,1.1873431E0,-5.326063E-1,5.357364E-1,-5.326063E-1,-2.214602E-1,-3.548085E-1,2.8393555E0,3.1361926E0,-8.248488E-1,4.1609016E-1,1.2453715E0,4.5236465E-2,8.00877E-1,1.3413535E-1,3.492727E0,-1.675701E-1,1.1873431E0,-4.4627387E-2,-2.4946874E-1,2.2303423E-1,5.3418034E-1,1.785848E-1,9.0930367E-1,1.5208383E0,4.4234455E-1,1.1873431E0,4.7840808E-2,-1.3926171E-1,-1.5828476E-3,-1.4529555E-1,-4.6753936E-2,-4.5516226E-2,-2.89724E-1,-2.0074748E-1,1.1224042E-1,2.4970084E-1,-1.9601604E-1,5.810998E-1,4.988635E-2,4.0861893E-1,-1.7930304E-1,-2.2421764E-1,8.019793E-2,-6.217771E-2,3.676098E-2,-1.1950369E-1,1.6987082E-2,-4.4181854E-2,6.814065E-1,-4.52055E-3,7.1001574E-2,4.1701737E-1,1.5153125E-1,-1.8068324E-1,1.02376804E-1,-4.2296186E-2,1.5054718E-1,-2.0915408E-1,2.892579E-1,-2.49124E-2,3.675423E-1,2.5579897E-1,6.609982E-2,-2.0680434E-1,-5.3101532E-2,2.1488027E-1,4.7333384E-1,2.3349263E-1,-1.2622952E-1,-1.95651E-2,1.2726222E-1,-7.429335E-2,-2.8855047E-1,5.232893E-1,1.1863944E-2,2.7040523E-1,-2.4622772E-2],"split_indices":[12,0,0,1,3,4,0,3,3,10,3,3,3,4,3,5,3,0,5,11,0,4,0,0,0,3,3,0,0,3,4,4,6,0,4,0,0,0,3,8,3,5,0,0,0,0,1,0,6,0,0,0,0,0,4,5,4,6,5,0,0,0,0,0,0,0,0,0,0,0,0,0,0,0,0,0,0,0,0,0,0,0,0,0,0,0,0,0,0,0,0,0,0,0,0,0,0,0,0,0,0,0,0,0,0,0,0,0,0],"split_type":[0,0,0,0,0,0,0,0,0,0,0,0,0,0,0,0,0,0,0,0,0,0,0,0,0,0,0,0,0,0,0,0,0,0,0,0,0,0,0,0,0,0,0,0,0,0,0,0,0,0,0,0,0,0,0,0,0,0,0,0,0,0,0,0,0,0,0,0,0,0,0,0,0,0,0,0,0,0,0,0,0,0,0,0,0,0,0,0,0,0,0,0,0,0,0,0,0,0,0,0,0,0,0,0,0,0,0,0,0],"sum_hessian":[1.8727955E3,1.7407213E3,1.3207425E2,1.8533063E2,1.5553906E3,5.4860844E1,7.72134E1,1.7133589E2,1.3994751E1,1.4966576E3,5.8733063E1,8.5307865E0,4.6330055E1,5.7434993E0,7.14699E1,1.6031374E2,1.1022149E1,5.718789E0,8.275962E0,1.2050509E3,2.916067E2,3.1576519E1,2.7156544E1,5.4247403E0,3.1060464E0,2.6845982E1,1.9484074E1,4.3800015E0,1.3634977E0,5.743402E1,1.403588E1,7.802774E1,8.2285995E1,8.485897E0,2.5362513E0,2.628202E0,3.0905871E0,2.0369449E0,6.2390165E0,5.993237E2,6.057272E2,2.3527873E0,2.8925388E2,2.6460337E1,5.1161833E0,1.6025284E1,1.1131259E1,1.219234E0,4.2055063E0,1.1703842E0,1.9356622E0,2.3711615E1,3.1343675E0,8.62149E0,1.0862584E1,5.410635E1,3.327672E0,5.0574155E0,8.978465E0,1.3273237E1,6.47545E1,4.679319E1,3.5492805E1,2.3439302E0,6.1419673E0,1.426756E0,1.1094954E0,1.1487309E0,1.4794711E0,1.6663804E0,1.4242067E0,1.0191053E0,1.0178396E0,3.9012163E0,2.3378003E0,4.4338492E2,1.5593883E2,2.1289558E1,5.8443756E2,1.2371246E0,1.1156626E0,1.7097978E2,1.1827411E2,2.8648336E0,2.3595503E1,3.9076586E0,1.2085248E0,5.4212704E0,1.0604014E1,9.238074E0,1.8931841E0,2.1503778E0,2.0551286E0,9.770153E0,1.3941462E1,1.9372836E0,1.197084E0,4.084694E0,4.536795E0,7.819531E0,3.0430536E0,4.7181984E1,6.9243665E0,1.1178133E0,2.2098587E0,3.1357841E0,1.9216312E0,1.7845705E0,7.1938944E0],"tree_param":{"num_deleted":"0","num_feature":"13","num_nodes":"109","size_leaf_vector":"1"}},{"base_weights":[-6.6950307E-3,-2.6256403E-1,-2.9524912E-3,-6.2961983E-3,2.5897285E-1,-1.772891E-2,2.0448105E-1,4.0457297E-2,-7.112584E-2,-2.3171954E-1,2.4067156E-1,1.0616016E-2,2.2306474E-1,-2.875738E-1,1.861381E-2,1.376128E0,1.9139943E-1,1.6453112E-2,-6.558082E-2,8.325074E-2,-1.521947E-1,-8.996683E-3,-3.1412166E-1,9.154749E-2,-8.999036E-3,6.959865E-1,-5.4187413E-2,2.7623463E-3,1.3908587E-1],"categories":[],"categories_nodes":[],"categories_segments":[],"categories_sizes":[],"default_left":[0,0,0,0,0,0,0,0,0,0,0,0,0,0,0,0,0,0,0,0,0,0,0,0,0,0,0,0,0],"id":23,"left_children":[1,-1,3,5,-1,7,9,11,13,-1,15,17,19,21,23,25,27,-1,-1,-1,-1,-1,-1,-1,-1,-1,-1,-1,-1],"loss_changes":[6.0567017E0,0E0,5.3842597E0,4.4640474E0,0E0,5.460797E0,3.5555704E0,4.5819387E0,1.7805435E1,0E0,4.9211917E0,7.35335E0,4.8371973E0,5.25251E1,9.045694E0,5.844534E0,4.4583006E0,0E0,0E0,0E0,0E0,0E0,0E0,0E0,0E0,0E0,0E0,0E0,0E0],"parents":[2147483647,0,0,2,2,3,3,5,5,6,6,7,7,8,8,10,10,11,11,12,12,13,13,14,14,15,15,16,16],"right_children":[2,-1,4,6,-1,8,10,12,14,-1,16,18,20,22,24,26,28,-1,-1,-1,-1,-1,-1,-1,-1,-1,-1,-1,-1],"split_conditions":[-2.958586E-1,-2.6256403E-1,2.0118372E0,4.8973856E0,2.5897285E-1,4.1609016E-1,-9.850821E-1,1.0026954E0,5.1429E-1,-2.3171954E-1,-7.447321E-1,9.0930367E-1,2.4947026E0,4.8974004E-1,2.5556087E-1,4.1609016E-1,5.1429E-1,1.6453112E-2,-6.558082E-2,8.325074E-2,-1.521947E-1,-8.996683E-3,-3.1412166E-1,9.154749E-2,-8.999036E-3,6.959865E-1,-5.4187413E-2,2.7623463E-3,1.3908587E-1],"split_indices":[5,0,5,9,0,5,3,4,5,0,3,4,3,5,4,5,5,0,0,0,0,0,0,0,0,0,0,0,0],"split_type":[0,0,0,0,0,0,0,0,0,0,0,0,0,0,0,0,0,0,0,0,0,0,0,0,0,0,0,0,0],"sum_hessian":[1.8631292E3,6.994883E0,1.8561343E3,1.8499856E3,6.148626E0,1.7556726E3,9.431307E1,8.4027454E2,9.153981E2,2.642493E0,9.167058E1,7.231561E2,1.1711836E2,2.6764526E2,6.477528E2,2.692557E0,8.897802E1,6.0682935E2,1.163268E2,1.0957167E2,7.5466914E0,2.0063808E2,6.700718E1,9.318403E1,5.545688E2,1.3710595E0,1.3214976E0,5.3922543E1,3.5055477E1],"tree_param":{"num_deleted":"0","num_feature":"13","num_nodes":"29","size_leaf_vector":"1"}},{"base_weights":[-6.805068E-3,-2.5977802E-1,-3.3426438E-3,-6.4534578E-3,2.558521E-1,-4.8460606E-1,-1.8554796E-3,-6.0854065E-1,2.0518674E-1,-4.0980127E-2,4.5337524E-2,-7.6858324E-1,1.5940379E-1,2.0796816E-1,-1.4218225E-1,-8.706294E-2,5.7085328E-2,-1.0190498E-1,6.542151E-2,-8.478152E-2,-2.4656714E-1,1.323575E-1,-4.6867106E-2,-3.2985564E-2,1.1391702E-1,9.08452E-2,4.025258E-3,1.6174357E-2,-1.3545369E-1,4.9646024E-2,8.490553E-3],"categories":[],"categories_nodes":[],"categories_segments":[],"categories_sizes":[],"default_left":[0,0,0,0,0,0,0,0,0,0,0,0,0,0,0,0,0,0,0,0,0,0,0,0,0,0,0,0,0,0,0],"id":24,"left_children":[1,-1,3,5,-1,7,9,11,13,15,17,19,21,-1,-1,23,25,27,29,-1,-1,-1,-1,-1,-1,-1,-1,-1,-1,-1,-1],"loss_changes":[5.5194507E0,0E0,4.932908E0,4.0539036E0,0E0,1.6262646E0,3.3766472E0,1.9832506E0,1.4629707E0,4.523321E0,2.457994E0,9.675169E-2,3.748126E-1,0E0,0E0,7.3133163E0,3.432286E0,5.465722E0,2.7069838E0,0E0,0E0,0E0,0E0,0E0,0E0,0E0,0E0,0E0,0E0,0E0,0E0],"parents":[2147483647,0,0,2,2,3,3,5,5,6,6,7,7,8,8,9,9,10,10,11,11,12,12,15,15,16,16,17,17,18,18],"right_children":[2,-1,4,6,-1,8,10,12,14,16,18,20,22,-1,-1,24,26,28,30,-1,-1,-1,-1,-1,-1,-1,-1,-1,-1,-1,-1],"split_conditions":[1.6216907E-1,-2.5977802E-1,1.1894791E0,-1.3326963E0,2.558521E-1,1.5208383E0,1.1873431E0,1.0026954E0,6.2912816E-1,1.200922E0,-1.9765876E-1,-1.7847372E0,-1.4370611E0,2.0796816E-1,-1.4218225E-1,4.912588E0,2.5556087E-1,1.200922E0,1.705906E-1,-8.478152E-2,-2.4656714E-1,1.323575E-1,-4.6867106E-2,-3.2985564E-2,1.1391702E-1,9.08452E-2,4.025258E-3,1.6174357E-2,-1.3545369E-1,4.9646024E-2,8.490553E-3],"split_indices":[4,0,4,0,0,5,6,4,4,0,5,3,3,0,0,2,4,0,5,0,0,0,0,0,0,0,0,0,0,0,0],"split_type":[0,0,0,0,0,0,0,0,0,0,0,0,0,0,0,0,0,0,0,0,0,0,0,0,0,0,0,0,0,0,0],"sum_hessian":[1.8554731E3,6.4480333E0,1.8490251E3,1.8433202E3,5.7049685E0,1.6562462E1,1.8267577E3,1.4139771E1,2.4226902E0,9.9882697E2,8.279307E2,1.1700508E1,2.439263E0,1.3975846E0,1.0251056E0,6.795879E2,3.1923904E2,9.888647E1,7.2904425E2,1.7794548E0,9.921053E0,1.0785365E0,1.3607265E0,6.485506E2,3.1037317E1,4.7274803E1,2.7196423E2,6.8985504E1,2.990096E1,1.9633E2,5.3271423E2],"tree_param":{"num_deleted":"0","num_feature":"13","num_nodes":"31","size_leaf_vector":"1"}},{"base_weights":[-5.4374216E-3,-2.4981944E-1,-2.7535155E-3,-5.252513E-3,2.4684446E-1,-7.3264563E-3,2.3769213E-1,-1.8647218E-2,1.3370621E-1,-4.0306397E-2,6.6132545E-2,3.2039744E-1,-1.55932605E-2,-1.6126523E-2,5.6407403E-2,7.05181E-2,-1.7899934E-2,6.245426E-2,1.8026564E-1,-2.366324E-1,1.3913455E-2],"categories":[],"categories_nodes":[],"categories_segments":[],"categories_sizes":[],"default_left":[0,0,0,0,0,0,0,0,0,0,0,0,0,0,0,0,0,0,0,0,0],"id":25,"left_children":[1,-1,3,5,-1,7,-1,9,11,13,15,17,19,-1,-1,-1,-1,-1,-1,-1,-1],"loss_changes":[4.101515E0,0E0,3.8071651E0,3.0471923E0,0E0,2.93213E0,0E0,3.1233106E0,3.808761E0,4.1686935E0,7.3710995E0,1.7850513E0,3.7155733E0,0E0,0E0,0E0,0E0,0E0,0E0,0E0,0E0],"parents":[2147483647,0,0,2,2,3,3,5,5,7,7,8,8,9,9,10,10,11,11,12,12],"right_children":[2,-1,4,6,-1,8,-1,10,12,14,16,18,20,-1,-1,-1,-1,-1,-1,-1,-1],"split_conditions":[1.6216907E-1,-2.4981944E-1,2.0118372E0,1.1894791E0,2.4684446E-1,3.8032768E0,2.3769213E-1,3.492727E0,8.00877E-1,4.8973856E0,2.453891E-1,5.786298E-1,8.897759E-1,-1.6126523E-2,5.6407403E-2,7.05181E-2,-1.7899934E-2,6.245426E-2,1.8026564E-1,-2.366324E-1,1.3913455E-2],"split_indices":[4,0,5,4,0,12,0,1,0,9,3,0,0,0,0,0,0,0,0,0,0],"split_type":[0,0,0,0,0,0,0,0,0,0,0,0,0,0,0,0,0,0,0,0,0],"sum_hessian":[1.847246E3,4.97337E0,1.8422726E3,1.8377035E3,4.5690956E0,1.8339255E3,3.7780554E0,1.6984573E3,1.3546823E2,1.3532573E3,3.4519992E2,5.9686886E1,7.578135E1,1.2787063E3,7.4551094E1,1.4697185E2,1.9822806E2,4.3875538E1,1.5811346E1,4.7529936E0,7.102835E1],"tree_param":{"num_deleted":"0","num_feature":"13","num_nodes":"21","size_leaf_vector":"1"}},{"base_weights":[-4.0016836E-3,-2.4644952E-1,-1.5106584E-3,-2.3571438E-1,4.5634422E-4,-1.4993853E-3,2.3494548E-1,-2.952331E-2,4.424715E-2,-6.5826826E-2,6.573901E-2,3.7554228E-3,1.4668185E-1,-3.2255005E-2,2.347265E-2,-1.502468E-1,2.277093E-2,4.585301E-2,-1.2933575E-2,1.8093067E-3,6.918401E-2],"categories":[],"categories_nodes":[],"categories_segments":[],"categories_sizes":[],"default_left":[0,0,0,0,0,0,0,0,0,0,0,0,0,0,0,0,0,0,0,0,0],"id":26,"left_children":[1,-1,3,-1,5,7,-1,9,11,13,15,17,19,-1,-1,-1,-1,-1,-1,-1,-1],"loss_changes":[3.7510703E0,0E0,2.835561E0,0E0,2.8091955E0,2.3484468E0,0E0,3.9328282E0,2.8858833E0,4.951516E0,1.8458982E0,3.4987023E0,2.3256898E0,0E0,0E0,0E0,0E0,0E0,0E0,0E0,0E0],"parents":[2147483647,0,0,2,2,4,4,5,5,7,7,8,8,9,9,10,10,11,11,12,12],"right_children":[2,-1,4,-1,6,8,-1,10,12,14,16,18,20,-1,-1,-1,-1,-1,-1,-1,-1],"split_conditions":[-2.958586E-1,-2.4644952E-1,-1.7327412E0,-2.3571438E-1,2.0118372E0,1.3603402E0,2.3494548E-1,3.1068413E0,1.2453715E0,3.1361926E0,-3.548085E-1,4.7840808E-2,1.705906E-1,-3.2255005E-2,2.347265E-2,-1.502468E-1,2.277093E-2,4.585301E-2,-1.2933575E-2,1.8093067E-3,6.918401E-2],"split_indices":[5,0,0,0,5,11,0,10,0,8,0,5,5,0,0,0,0,0,0,0,0],"split_type":[0,0,0,0,0,0,0,0,0,0,0,0,0,0,0,0,0,0,0,0,0],"sum_hessian":[1.8416156E3,4.5958056E0,1.8370198E3,3.599313E0,1.8334205E3,1.8298463E3,3.574174E0,1.1349442E3,6.9490216E2,8.21998E2,3.129462E2,4.9877606E2,1.9612608E2,6.3771375E2,1.8428423E2,4.6645265E0,3.0828168E2,1.1875326E2,3.800228E2,7.369735E1,1.22428734E2],"tree_param":{"num_deleted":"0","num_feature":"13","num_nodes":"21","size_leaf_vector":"1"}},{"base_weights":[-3.3732643E-3,-2.3502876E-1,-1.4074583E-3,-3.2556662E-3,2.3171808E-1,-1.8513579E-2,8.642739E-2,-2.8020566E-2,1.4968008E-1,2.1909443E-1,-1.7090881E-2,1.5503983E-2,-6.9056906E-2,1.9838323E-1,-2.4773245E-1,2.752623E-1,-2.267573E-1,1.9398661E-2,-6.2282366E-1,2.0155257E-2,-2.6988028E-2,-7.752203E-2,3.5508882E-4,-4.482509E-2,1.03112146E-1,9.505305E-2,-6.3780434E-2,3.085853E-1,-1.3026026E-1,-2.1415295E-1,1.5132869E-2,-2.7644774E-1,5.7689745E-2],"categories":[],"categories_nodes":[],"categories_segments":[],"categories_sizes":[],"default_left":[0,0,0,0,0,0,0,0,0,0,0,0,0,0,0,0,0,0,0,0,0,0,0,0,0,0,0,0,0,0,0,0,0],"id":27,"left_children":[1,-1,3,5,-1,7,9,11,13,15,17,19,21,23,-1,25,27,29,31,-1,-1,-1,-1,-1,-1,-1,-1,-1,-1,-1,-1,-1,-1],"loss_changes":[2.8154233E0,0E0,2.6241474E0,2.5053885E0,0E0,2.5059135E0,3.6597764E0,2.6474776E0,4.14784E0,2.9861789E0,3.3377237E0,3.9295514E0,1.0145856E1,4.129163E0,0E0,2.179957E0,3.9911797E0,3.288435E0,2.2657945E0,0E0,0E0,0E0,0E0,0E0,0E0,0E0,0E0,0E0,0E0,0E0,0E0,0E0,0E0],"parents":[2147483647,0,0,2,2,3,3,5,5,6,6,7,7,8,8,9,9,10,10,11,11,12,12,13,13,15,15,16,16,17,17,18,18],"right_children":[2,-1,4,6,-1,8,10,12,14,16,18,20,22,24,-1,26,28,30,32,-1,-1,-1,-1,-1,-1,-1,-1,-1,-1,-1,-1,-1,-1],"split_conditions":[1.6216907E-1,-2.3502876E-1,1.1894791E0,1.6466751E0,2.3171808E-1,4.8973856E0,5.357364E-1,4.1609016E-1,1.4531858E0,3.1361926E0,1.512068E0,4.6457624E-1,5.1429E-1,-1.0074672E-3,-2.4773245E-1,3.956454E0,-1.9765876E-1,-5.7705575E-1,1.3603402E0,2.0155257E-2,-2.6988028E-2,-7.752203E-2,3.5508882E-4,-4.482509E-2,1.03112146E-1,9.505305E-2,-6.3780434E-2,3.085853E-1,-1.3026026E-1,-2.1415295E-1,1.5132869E-2,-2.7644774E-1,5.7689745E-2],"split_indices":[4,0,4,3,0,9,4,5,3,8,0,3,5,3,0,3,5,0,11,0,0,0,0,0,0,0,0,0,0,0,0,0,0],"split_type":[0,0,0,0,0,0,0,0,0,0,0,0,0,0,0,0,0,0,0,0,0,0,0,0,0,0,0,0,0,0,0,0,0],"sum_hessian":[1.8357388E3,3.6152997E0,1.8321234E3,1.8287513E3,3.3721423E0,1.5635378E3,2.6521344E2,1.4806774E3,8.286048E1,1.1575175E2,1.494617E2,7.1885614E2,7.618212E2,7.9678856E1,3.181633E0,1.0314081E2,1.2610942E1,1.4188263E2,7.579081E0,4.8268875E2,2.3616739E2,2.054104E2,5.564108E2,2.3473099E1,5.6205753E1,9.536342E1,7.777384E0,1.2270038E0,1.1383938E1,4.8696933E0,1.3701294E2,5.45121E0,2.1278708E0],"tree_param":{"num_deleted":"0","num_feature":"13","num_nodes":"33","size_leaf_vector":"1"}},{"base_weights":[-3.319096E-3,-2.3304719E-1,-1.4237141E-3,-1.2270324E-2,1.3246667E-1,-4.3521956E-2,3.2115635E-2,3.1854875E-2,3.0838993E-1,-8.7336466E-2,5.0557688E-2,1.0758615E-2,1.6187926E-1,9.245197E-2,-5.846952E-1,3.8110802E-1,-9.6978106E-2,-1.4614835E-1,6.8006285E-2,6.230989E-2,-3.5778105E-1,1.3352324E-1,-2.8923871E-2,1.0960686E0,6.746665E-2,-1.3746324E-3,3.6441317E-1,6.5002227E-3,-7.344141E-1,2.6872692E-1,9.8942184E-1,-6.763698E-1,4.7069395E-1,-6.037026E-2,1.9566556E-2,-1.3303847E-2,8.4227756E-2,1.4652638E-2,1.3499281E-1,-1.7238413E-1,1.5504629E-3,-1.7408347E-2,1.0349635E-1,-7.668335E-2,5.1770923E-3,3.878393E-1,-2.6574474E-2,-1.6109937E-1,4.979578E-2,4.5122866E-2,-1.9625802E-1,4.4021246E-1,4.72291E-2,-2.4684153E-1,-3.9569084E-2,4.5251913E-2,2.6667878E-1,4.338304E-2,3.7509072E-1,-4.272051E-2,-2.3882851E-1,2.5915393E-1,-9.928091E-2],"categories":[],"categories_nodes":[],"categories_segments":[],"categories_sizes":[],"default_left":[0,0,0,0,0,0,0,0,0,0,0,0,0,0,0,0,0,0,0,0,0,0,0,0,0,0,0,0,0,0,0,0,0,0,0,0,0,0,0,0,0,0,0,0,0,0,0,0,0,0,0,0,0,0,0,0,0,0,0,0,0,0,0],"id":28,"left_children":[1,-1,3,5,7,9,11,13,15,17,19,21,23,25,27,29,31,33,35,37,39,41,43,45,47,49,51,-1,53,55,57,59,61,-1,-1,-1,-1,-1,-1,-1,-1,-1,-1,-1,-1,-1,-1,-1,-1,-1,-1,-1,-1,-1,-1,-1,-1,-1,-1,-1,-1,-1,-1],"loss_changes":[2.685588E0,0E0,2.657924E0,2.3497136E0,2.4178407E0,4.101221E0,1.9383574E0,3.3556616E0,1.5045443E0,6.208235E0,1.5407895E0,2.9374886E0,8.64571E0,2.0756965E0,7.4623847E-1,2.6338463E0,3.071228E0,5.7469406E0,4.4823704E0,1.588317E0,7.1130204E-1,5.985797E0,4.7771387E0,2.2140617E0,5.4996414E0,6.1884384E0,4.532158E0,0E0,2.3659778E-1,2.583949E0,1.1947551E0,1.7767286E-1,1.804116E0,0E0,0E0,0E0,0E0,0E0,0E0,0E0,0E0,0E0,0E0,0E0,0E0,0E0,0E0,0E0,0E0,0E0,0E0,0E0,0E0,0E0,0E0,0E0,0E0,0E0,0E0,0E0,0E0,0E0,0E0],"parents":[2147483647,0,0,2,2,3,3,4,4,5,5,6,6,7,7,8,8,9,9,10,10,11,11,12,12,13,13,14,14,15,15,16,16,17,17,18,18,19,19,20,20,21,21,22,22,23,23,24,24,25,25,26,26,28,28,29,29,30,30,31,31,32,32],"right_children":[2,-1,4,6,8,10,12,14,16,18,20,22,24,26,28,30,32,34,36,38,40,42,44,46,48,50,52,-1,54,56,58,60,62,-1,-1,-1,-1,-1,-1,-1,-1,-1,-1,-1,-1,-1,-1,-1,-1,-1,-1,-1,-1,-1,-1,-1,-1,-1,-1,-1,-1,-1,-1],"split_conditions":[-2.958586E-1,-2.3304719E-1,3.8032768E0,1.3603402E0,7.3818225E-1,3.1068413E0,1.0026954E0,5.325998E-1,1.4231693E0,3.1361926E0,3.0842404E0,4.7840808E-2,-3.103591E-1,5.3883994E-1,2.5556087E-1,1.200922E0,5.1429E-1,4.8973856E0,8.453264E-1,2.4947026E0,3.956454E0,5.357364E-1,1.705906E-1,1.5208383E0,-1.9765876E-1,4.8974004E-1,-6.99383E-1,6.5002227E-3,6.943448E-1,1.0026954E0,2.5556087E-1,8.576014E-1,6.2912816E-1,-6.037026E-2,1.9566556E-2,-1.3303847E-2,8.4227756E-2,1.4652638E-2,1.3499281E-1,-1.7238413E-1,1.5504629E-3,-1.7408347E-2,1.0349635E-1,-7.668335E-2,5.1770923E-3,3.878393E-1,-2.6574474E-2,-1.6109937E-1,4.979578E-2,4.5122866E-2,-1.9625802E-1,4.4021246E-1,4.72291E-2,-2.4684153E-1,-3.9569084E-2,4.5251913E-2,2.6667878E-1,4.338304E-2,3.7509072E-1,-4.272051E-2,-2.3882851E-1,2.5915393E-1,-9.928091E-2],"split_indices":[5,0,12,11,3,10,4,3,0,8,3,5,0,5,4,0,5,9,0,3,3,4,5,5,5,5,3,0,3,4,4,3,4,0,0,0,0,0,0,0,0,0,0,0,0,0,0,0,0,0,0,0,0,0,0,0,0,0,0,0,0,0,0],"split_type":[0,0,0,0,0,0,0,0,0,0,0,0,0,0,0,0,0,0,0,0,0,0,0,0,0,0,0,0,0,0,0,0,0,0,0,0,0,0,0,0,0,0,0,0,0,0,0,0,0,0,0,0,0,0,0,0,0,0,0,0,0,0,0],"sum_hessian":[1.831561E3,3.4776607E0,1.8280834E3,1.6919268E3,1.3615652E2,9.9287476E2,6.99052E2,8.737004E1,4.8786488E1,6.774475E2,3.1542728E2,6.0118884E2,9.7863174E1,8.032538E1,7.0446596E0,4.1416687E1,7.3698006E0,4.9144748E2,1.8600003E2,3.074268E2,8.000496E0,1.4628038E2,4.5490845E2,8.008794E0,8.9854385E1,6.0461212E1,1.9864166E1,1.5643417E0,5.480318E0,3.617534E1,5.241346E0,3.5524898E0,3.8173108E0,3.8988602E2,1.0156144E2,1.222387E2,6.3761333E1,2.9819336E2,9.233435E0,4.643314E0,3.3571823E0,7.7134865E1,6.914552E1,7.622226E1,3.786862E2,6.789933E0,1.2188607E0,1.1968854E1,7.788553E1,4.9679935E1,1.0781276E1,2.1765428E0,1.7687624E1,4.4603577E0,1.0199603E0,3.1442081E1,4.7332587E0,1.6033896E0,3.6379564E0,1.0516393E0,2.5008504E0,2.5091221E0,1.3081888E0],"tree_param":{"num_deleted":"0","num_feature":"13","num_nodes":"63","size_leaf_vector":"1"}},{"base_weights":[-3.3949488E-3,-7.255733E-2,1.413296E-2,-1.9415164E-1,8.613247E-3,-4.322617E-1,2.2757689E-2,1.4575163E-1,-2.9640168E-1,-3.1112984E-1,5.2477825E-2,-1.742105E-1,-6.633882E-1,5.9513256E-2,-2.6949713E-2,-2.8772205E-1,4.6226987E-1,4.3859276E-1,-3.401626E-1,-5.694753E-1,1.1168723E-1,1.1246598E-1,-1.7343819E-1,1.8413352E-2,-5.786842E-1,1.0869542E-1,-8.3849365E-1,1.6404502E-1,1.3117666E-2,1.8474186E-2,-2.9590234E-1,-6.4531815E-1,1.2428815E-1,-2.6849106E-1,7.7647185E-1,-2.2602947E-1,4.4545707E-1,-2.6841456E-1,-8.163771E-1,1.6455155E-2,-8.18668E-1,-5.335251E-1,8.835152E-1,5.9335724E-2,3.9197427E-1,-8.014739E-3,-8.4112024E-1,3.6687014E-1,-2.5123352E-1,-2.1854801E-1,-1.1508901E-2,-1.703493E-1,2.1453682E-1,-2.7375454E-1,-4.1423563E-2,3.2369152E-1,1.1084011E-2,-3.5755977E-2,2.783585E-1,-7.1340464E-3,3.0117995E-1,-4.1751495E-1,7.981971E-2,-2.496426E-1,-4.201451E-2,1.6196579E-1,-2.0419993E-1,-1.430024E-1,1.3263416E-1,2.9399067E-1,-1.7818284E-1,2.2741973E-1,-2.2589295E-1,-1.289143E-1,-1.0398007E-2,-5.325207E-2,-2.851074E-1,1.2426463E-1,-2.1662329E-1,-2.8282234E-1,-4.7071923E-2,-2.4399942E-1,-4.7928456E-2,3.8556438E-2,4.1142246E-1,2.4932431E-2,-2.496482E-1,1.8008785E-1,-3.709974E-2,-2.4860494E-1,4.658304E-2,-3.495388E-1,4.2882327E-2,-1.6465381E-1,2.3648086E-1,4.0147945E-2,-1.2103867E-1,1.425547E-1,-9.125943E-2,1.586316E-2,-2.0938991E-1,6.2465172E-2,-2.2176793E-2,1.6287746E-1,2.4916835E-2,-2.8445499E-2,3.1516127E-2,1.7563568E-2,2.3442528E-1,-1.423789E-1,-1.104905E-2,1.5797226E-1,-1.04311585E-1],"categories":[],"categories_nodes":[],"categories_segments":[],"categories_sizes":[],"default_left":[0,0,0,0,0,0,0,0,0,0,0,0,0,0,0,0,0,0,0,0,0,0,0,0,0,0,0,0,0,0,0,0,0,0,0,0,0,0,0,0,0,0,0,0,0,0,0,0,0,0,0,0,0,0,0,0,0,0,0,0,0,0,0,0,0,0,0,0,0,0,0,0,0,0,0,0,0,0,0,0,0,0,0,0,0,0,0,0,0,0,0,0,0,0,0,0,0,0,0,0,0,0,0,0,0,0,0,0,0,0,0,0,0],"id":29,"left_children":[1,3,5,7,9,11,13,15,17,19,21,23,25,27,29,31,33,35,37,39,41,43,45,47,49,51,53,55,57,59,61,63,65,67,69,71,-1,73,75,77,79,81,83,85,87,89,91,93,95,-1,-1,-1,-1,-1,-1,97,99,101,103,105,107,109,111,-1,-1,-1,-1,-1,-1,-1,-1,-1,-1,-1,-1,-1,-1,-1,-1,-1,-1,-1,-1,-1,-1,-1,-1,-1,-1,-1,-1,-1,-1,-1,-1,-1,-1,-1,-1,-1,-1,-1,-1,-1,-1,-1,-1,-1,-1,-1,-1,-1,-1],"loss_changes":[2.2172542E0,3.6515434E0,5.6284313E0,5.189735E0,3.1400497E0,1.5372248E0,2.619091E0,4.9233613E0,3.8212118E0,3.0142562E0,2.6853285E0,1.1364225E0,2.0193553E0,3.9938025E0,7.454227E0,2.3419638E0,4.929927E0,5.1003976E0,3.481659E0,2.4856186E0,5.9896884E0,2.2939959E0,4.595296E0,1.1029143E0,3.5186315E-1,1.8509805E0,4.8269367E-1,6.1793566E0,7.421644E0,3.7852392E0,4.0613594E0,6.744876E-1,3.034233E0,1.2353605E0,4.663989E0,3.1938171E0,0E0,3.5904522E0,1.0033121E0,2.0711858E0,8.290615E-1,5.6647956E-1,1.8209705E0,2.8728938E0,2.7322743E0,4.7388844E0,2.8013868E0,2.4003477E0,4.442611E-1,0E0,0E0,0E0,0E0,0E0,0E0,1.1925538E1,3.8993466E0,4.5191746E0,4.55733E0,4.7330456E0,5.0143557E0,1.4331989E0,4.4606953E0,0E0,0E0,0E0,0E0,0E0,0E0,0E0,0E0,0E0,0E0,0E0,0E0,0E0,0E0,0E0,0E0,0E0,0E0,0E0,0E0,0E0,0E0,0E0,0E0,0E0,0E0,0E0,0E0,0E0,0E0,0E0,0E0,0E0,0E0,0E0,0E0,0E0,0E0,0E0,0E0,0E0,0E0,0E0,0E0,0E0,0E0,0E0,0E0,0E0,0E0],"parents":[2147483647,0,0,1,1,2,2,3,3,4,4,5,5,6,6,7,7,8,8,9,9,10,10,11,11,12,12,13,13,14,14,15,15,16,16,17,17,18,18,19,19,20,20,21,21,22,22,23,23,24,24,25,25,26,26,27,27,28,28,29,29,30,30,31,31,32,32,33,33,34,34,35,35,37,37,38,38,39,39,40,40,41,41,42,42,43,43,44,44,45,45,46,46,47,47,48,48,55,55,56,56,57,57,58,58,59,59,60,60,61,61,62,62],"right_children":[2,4,6,8,10,12,14,16,18,20,22,24,26,28,30,32,34,36,38,40,42,44,46,48,50,52,54,56,58,60,62,64,66,68,70,72,-1,74,76,78,80,82,84,86,88,90,92,94,96,-1,-1,-1,-1,-1,-1,98,100,102,104,106,108,110,112,-1,-1,-1,-1,-1,-1,-1,-1,-1,-1,-1,-1,-1,-1,-1,-1,-1,-1,-1,-1,-1,-1,-1,-1,-1,-1,-1,-1,-1,-1,-1,-1,-1,-1,-1,-1,-1,-1,-1,-1,-1,-1,-1,-1,-1,-1,-1,-1,-1,-1],"split_conditions":[-1.0379867E-1,8.00877E-1,-7.104041E-1,-5.326063E-1,-1.9765876E-1,3.5271782E-2,6.2912816E-1,5.357364E-1,-1.1483387E0,1.3603402E0,4.912588E0,1.3603402E0,-1.9765876E-1,1.06318645E-1,1.5565175E0,1.1873431E0,-1.2882469E0,-1.2208972E0,1.5208383E0,4.4234455E-1,-4.983355E-1,-1.990317E-1,-2.3682259E-1,5.357364E-1,-8.437524E-1,-8.8820183E-1,3.1361926E0,4.1609016E-1,1.4231693E0,1.3787198E0,3.1068413E0,4.4234455E-1,4.4234455E-1,1.3603402E0,-2.761251E-1,-1.4642705E0,4.4545707E-1,1.1873431E0,-4.366242E-2,3.1068413E0,3.1361926E0,1.6009669E0,1.2898209E0,-2.0961314E-1,-1.2949647E-1,-9.850821E-1,9.0930367E-1,4.7840808E-2,4.7840808E-2,-2.1854801E-1,-1.1508901E-2,-1.703493E-1,2.1453682E-1,-2.7375454E-1,-4.1423563E-2,1.6454164E0,5.1899772E-2,7.870218E-4,5.522511E-1,8.3341527E-1,1.3603402E0,1.5208383E0,4.1609016E-1,-2.496426E-1,-4.201451E-2,1.6196579E-1,-2.0419993E-1,-1.430024E-1,1.3263416E-1,2.9399067E-1,-1.7818284E-1,2.2741973E-1,-2.2589295E-1,-1.289143E-1,-1.0398007E-2,-5.325207E-2,-2.851074E-1,1.2426463E-1,-2.1662329E-1,-2.8282234E-1,-4.7071923E-2,-2.4399942E-1,-4.7928456E-2,3.8556438E-2,4.1142246E-1,2.4932431E-2,-2.496482E-1,1.8008785E-1,-3.709974E-2,-2.4860494E-1,4.658304E-2,-3.495388E-1,4.2882327E-2,-1.6465381E-1,2.3648086E-1,4.0147945E-2,-1.2103867E-1,1.425547E-1,-9.125943E-2,1.586316E-2,-2.0938991E-1,6.2465172E-2,-2.2176793E-2,1.6287746E-1,2.4916835E-2,-2.8445499E-2,3.1516127E-2,1.7563568E-2,2.3442528E-1,-1.423789E-1,-1.104905E-2,1.5797226E-1,-1.04311585E-1],"split_indices":[3,0,0,0,5,3,4,4,3,11,2,11,5,3,0,6,0,3,5,4,3,3,3,4,0,0,8,5,0,0,10,4,4,11,3,3,0,6,0,10,8,0,0,3,3,3,4,5,5,0,0,0,0,0,0,0,3,0,3,3,11,5,5,0,0,0,0,0,0,0,0,0,0,0,0,0,0,0,0,0,0,0,0,0,0,0,0,0,0,0,0,0,0,0,0,0,0,0,0,0,0,0,0,0,0,0,0,0,0,0,0,0,0],"split_type":[0,0,0,0,0,0,0,0,0,0,0,0,0,0,0,0,0,0,0,0,0,0,0,0,0,0,0,0,0,0,0,0,0,0,0,0,0,0,0,0,0,0,0,0,0,0,0,0,0,0,0,0,0,0,0,0,0,0,0,0,0,0,0,0,0,0,0,0,0,0,0,0,0,0,0,0,0,0,0,0,0,0,0,0,0,0,0,0,0,0,0,0,0,0,0,0,0,0,0,0,0,0,0,0,0,0,0,0,0,0,0,0,0],"sum_hessian":[1.8271613E3,3.6879892E2,1.4583623E3,1.470799E2,2.2171901E2,2.6711704E1,1.4316506E3,3.391454E1,1.1316537E2,2.6012505E1,1.9570651E2,1.3449345E1,1.3262361E1,8.229399E2,6.087107E2,1.435131E1,1.9563229E1,5.8521423E0,1.07313225E2,1.5931399E1,1.0081104E1,1.5504036E2,4.066615E1,9.757144E0,3.6922007E0,2.5219064E0,1.0740455E1,2.5219507E2,5.707448E2,5.2155554E2,8.715516E1,7.379849E0,6.971461E0,5.926063E0,1.3637165E1,4.0582013E0,1.7939411E0,9.4620964E1,1.269226E1,5.0324626E0,1.0898937E1,5.659106E0,4.4219985E0,1.312954E2,2.3744963E1,3.340244E1,7.2637115E0,4.099248E0,5.657896E0,2.6180596E0,1.074141E0,1.2221401E0,1.2997662E0,9.439994E0,1.3004607E0,1.2285464E2,1.2934042E2,4.8267218E2,8.8072655E1,4.7912952E2,4.242605E1,6.5759186E1,2.1395975E1,4.915437E0,2.4644115E0,4.8148513E0,2.1566098E0,4.837914E0,1.0881491E0,1.2122038E1,1.5151271E0,1.2622666E0,2.7959344E0,5.549141E1,3.912955E1,2.6033573E0,1.0088902E1,3.556262E0,1.4762005E0,8.8205805E0,2.0783565E0,2.5637655E0,3.0953403E0,2.2318013E0,2.1901972E0,1.2876846E2,2.5269248E0,1.6795439E1,6.9495244E0,4.8670115E0,2.8535427E1,5.3260665E0,1.937645E0,1.1965861E0,2.9026616E0,1.6372879E0,4.020608E0,9.91709E1,2.3683733E1,1.23015045E2,6.3253865E0,6.469109E1,4.1798108E2,3.6647797E1,5.142486E1,2.6902133E2,2.1010817E2,2.8930927E1,1.3495121E1,5.697016E1,8.789023E0,1.0349397E1,1.1046579E1],"tree_param":{"num_deleted":"0","num_feature":"13","num_nodes":"113","size_leaf_vector":"1"}},{"base_weights":[-6.193644E-3,-7.722841E-3,2.2087403E-1,-2.2058636E-1,-6.212252E-3,-2.1549898E-1,-4.8311115E-3,2.00049E-2,-4.2110812E-2,1.0675345E-2,2.2233553E-1,-3.0836672E-1,3.241503E-2,-3.6666347E-3,4.3724507E-2,1.0023108E-1,-1.0250502E-1,5.8768377E-2,8.334218E-4],"categories":[],"categories_nodes":[],"categories_segments":[],"categories_sizes":[],"default_left":[0,0,0,0,0,0,0,0,0,0,0,0,0,0,0,0,0,0,0],"id":30,"left_children":[1,3,-1,-1,5,-1,7,9,11,13,15,-1,17,-1,-1,-1,-1,-1,-1],"loss_changes":[2.0825956E0,2.0029173E0,0E0,0E0,1.7902864E0,0E0,1.6871107E0,2.0622234E0,5.3555145E1,3.2386649E0,3.1500838E0,0E0,3.285791E0,0E0,0E0,0E0,0E0,0E0,0E0],"parents":[2147483647,0,0,1,1,4,4,6,6,7,7,8,8,9,9,10,10,12,12],"right_children":[2,4,-1,-1,6,-1,8,10,12,14,16,-1,18,-1,-1,-1,-1,-1,-1],"split_conditions":[2.0118372E0,-2.958586E-1,2.2087403E-1,-2.2058636E-1,-1.7327412E0,-2.1549898E-1,4.8974004E-1,2.8393555E0,5.1429E-1,1.0026954E0,1.0026954E0,-3.0836672E-1,2.5556087E-1,-3.6666347E-3,4.3724507E-2,1.0023108E-1,-1.0250502E-1,5.8768377E-2,8.334218E-4],"split_indices":[5,5,0,0,0,0,5,3,5,4,4,0,4,0,0,0,0,0,0],"split_type":[0,0,0,0,0,0,0,0,0,0,0,0,0,0,0,0,0,0,0],"sum_hessian":[1.8283319E3,1.8255614E3,2.7704933E0,2.7759745E0,1.8227854E3,2.523585E0,1.8202618E3,1.0927362E3,7.275256E2,1.045577E3,4.715926E1,5.023662E1,6.77289E2,8.9480066E2,1.5077632E2,3.9699833E1,7.4594274E0,1.0308039E2,5.7420856E2],"tree_param":{"num_deleted":"0","num_feature":"13","num_nodes":"19","size_leaf_vector":"1"}},{"base_weights":[-5.864206E-3,-7.27889E-3,2.1589617E-1,-2.1650113E-1,-5.862786E-3,-9.209628E-2,3.7205531E-3,-1.24613106E-1,2.29436E-1,-9.281843E-2,1.8487485E-2,-1.5830982E-1,2.1018712E-1,6.531458E-2,3.1880236E-1,-2.8131282E-1,-2.2041619E-2,7.218494E-1,1.2639008E-2,-3.7178703E-2,-1.844838E-1,1.04859896E-1,-2.1717982E-1,-5.24768E-2,2.678511E-1,-1.02220885E-1,1.2886776E-1,-5.3890396E-2,4.1130424E-2,-3.120772E-2,4.4347456E-1,1.6219693E-4,3.784457E-2],"categories":[],"categories_nodes":[],"categories_segments":[],"categories_sizes":[],"default_left":[0,0,0,0,0,0,0,0,0,0,0,0,0,0,0,0,0,0,0,0,0,0,0,0,0,0,0,0,0,0,0,0,0],"id":31,"left_children":[1,3,-1,-1,5,7,9,11,13,15,17,19,21,23,-1,25,27,29,31,-1,-1,-1,-1,-1,-1,-1,-1,-1,-1,-1,-1,-1,-1],"loss_changes":[1.8756309E0,1.8367397E0,0E0,0E0,1.5020636E0,1.9292182E0,2.334523E0,1.9030955E0,2.2619221E0,2.8923402E0,5.83268E0,2.2968404E0,2.2817307E0,3.1994338E0,0E0,2.6481695E0,4.0133314E0,7.458387E0,1.9354687E0,0E0,0E0,0E0,0E0,0E0,0E0,0E0,0E0,0E0,0E0,0E0,0E0,0E0,0E0],"parents":[2147483647,0,0,1,1,4,4,5,5,6,6,7,7,8,8,9,9,10,10,11,11,12,12,13,13,15,15,16,16,17,17,18,18],"right_children":[2,4,-1,-1,6,8,10,12,14,16,18,20,22,24,-1,26,28,30,32,-1,-1,-1,-1,-1,-1,-1,-1,-1,-1,-1,-1,-1,-1],"split_conditions":[1.1894791E0,1.6216907E-1,2.1589617E-1,-2.1650113E-1,-1.3256131E-1,3.8032768E0,-3.184509E-1,3.492727E0,2.4947026E0,7.564276E-1,-2.9124147E-1,2.8393555E0,3.1068413E0,1.0026954E0,3.1880236E-1,4.912588E0,4.1609016E-1,4.1609016E-1,3.1361926E0,-3.7178703E-2,-1.844838E-1,1.04859896E-1,-2.1717982E-1,-5.24768E-2,2.678511E-1,-1.02220885E-1,1.2886776E-1,-5.3890396E-2,4.1130424E-2,-3.120772E-2,4.4347456E-1,1.6219693E-4,3.784457E-2],"split_indices":[4,4,0,0,0,12,3,1,3,0,3,3,10,4,0,2,5,5,8,0,0,0,0,0,0,0,0,0,0,0,0,0,0],"split_type":[0,0,0,0,0,0,0,0,0,0,0,0,0,0,0,0,0,0,0,0,0,0,0,0,0,0,0,0,0,0,0,0,0],"sum_hessian":[1.8213221E3,1.8187656E3,2.5564337E0,2.5919068E0,1.8161737E3,1.8078761E2,1.6353861E3,1.6473978E2,1.6047832E1,2.162651E2,1.4191211E3,1.5015431E2,1.4585461E1,1.4308E1,1.739833E0,5.822482E1,1.5804028E2,1.0693154E1,1.4084279E3,1.4082294E2,9.331372E0,1.32367115E1,1.3487498E0,1.1700002E1,2.6079977E0,5.421365E1,4.011168E0,7.934215E1,7.869814E1,5.5241156E0,5.1690383E0,1.2736783E3,1.3474954E2],"tree_param":{"num_deleted":"0","num_feature":"13","num_nodes":"33","size_leaf_vector":"1"}},{"base_weights":[-4.480042E-3,-5.6860168E-3,2.0583966E-1,-2.036554E-1,-4.5264745E-3,1.8033143E-2,-3.8640406E-2,-1.0930366E-2,6.450999E-2,-3.0301306E-1,1.6758688E-2,-3.98593E-2,1.4801586E-1,-2.3886317E-1,8.173867E-2,6.149577E-2,-7.324873E-2,-1.9784372E-3,-6.610649E-2,5.5925544E-2,-1.4563623E-1,-2.1604102E-2,-1.649395E-1,1.7479536E-1,2.004375E-2,-2.3353434E-1,2.0895464E-2,-4.162296E-2,3.5724726E-2],"categories":[],"categories_nodes":[],"categories_segments":[],"categories_sizes":[],"default_left":[0,0,0,0,0,0,0,0,0,0,0,0,0,0,0,0,0,0,0,0,0,0,0,0,0,0,0,0,0],"id":32,"left_children":[1,3,-1,-1,5,7,9,11,13,-1,15,17,19,21,23,25,27,-1,-1,-1,-1,-1,-1,-1,-1,-1,-1,-1,-1],"loss_changes":[1.5167111E0,1.4130467E0,0E0,0E0,1.3952947E0,1.4699563E0,3.8852573E1,3.1017199E0,2.2104874E0,0E0,2.7575428E0,3.4232433E0,2.617646E0,1.1422898E0,2.9323432E0,3.1865373E0,2.8816857E0,0E0,0E0,0E0,0E0,0E0,0E0,0E0,0E0,0E0,0E0,0E0,0E0],"parents":[2147483647,0,0,1,1,4,4,5,5,6,6,7,7,8,8,10,10,11,11,12,12,13,13,14,14,15,15,16,16],"right_children":[2,4,-1,-1,6,8,10,12,14,-1,16,18,20,22,24,26,28,-1,-1,-1,-1,-1,-1,-1,-1,-1,-1,-1,-1],"split_conditions":[2.0118372E0,-2.958586E-1,2.0583966E-1,-2.036554E-1,4.8974004E-1,1.705906E-1,5.1429E-1,1.0026954E0,-4.437074E-1,-3.0301306E-1,1.5208383E0,9.0930367E-1,2.4947026E0,5.9306526E-1,-2.6590964E-1,-1.2437974E0,1.0510907E0,-1.9784372E-3,-6.610649E-2,5.5925544E-2,-1.4563623E-1,-2.1604102E-2,-1.649395E-1,1.7479536E-1,2.004375E-2,-2.3353434E-1,2.0895464E-2,-4.162296E-2,3.5724726E-2],"split_indices":[5,5,0,0,5,5,5,4,0,0,5,4,3,3,0,0,3,0,0,0,0,0,0,0,0,0,0,0,0],"split_type":[0,0,0,0,0,0,0,0,0,0,0,0,0,0,0,0,0,0,0,0,0,0,0,0,0,0,0,0,0],"sum_hessian":[1.8154015E3,1.8132269E3,2.174563E0,2.11296E0,1.8111139E3,1.090461E3,7.206529E2,6.7227594E2,4.1818512E2,3.7951683E1,6.8270123E2,5.6939307E2,1.0288288E2,2.1781359E1,3.9640375E2,4.5624634E2,2.2645486E2,4.816616E2,8.7731445E1,9.7667725E1,5.2151556E0,1.4976494E1,6.804865E0,1.0369649E1,3.860341E2,3.4792528E0,4.527671E2,1.6913724E2,5.7317623E1],"tree_param":{"num_deleted":"0","num_feature":"13","num_nodes":"29","size_leaf_vector":"1"}},{"base_weights":[-4.764356E-3,-5.869022E-3,1.997759E-1,-3.0862479E-2,2.3431662E-2,3.875734E-1,-3.7389364E-2,-4.911973E-1,2.8001009E-2,-3.5884923E-1,8.1769276E-1,-1.4623511E-1,-1.1314713E-2,-2.4348223E-1,-4.1090653E-4,1.898746E-1,1.1224204E-2,-2.1977079E-1,1.3109083E-1,1.3795047E0,9.957866E-2,-4.875506E-1,-1.02096155E-1,5.1045205E-2,-6.0253102E-2,1.4079016E-1,-1.6928543E-1,8.266341E-2,8.3900446E-1,-6.1565834E-1,1.7721217E-2,-1.6708463E-1,2.3013912E-1,1.007842E-1,5.6751597E-1,1.1119489E-1,-1.5703443E-1,8.152167E-2,-1.8738106E-1,2.5853956E-1,-3.7981883E-2,-2.4017965E-2,3.9302003E-2,3.071245E-1,-1.983341E-2,4.0830337E-2,-1.7110802E-1,5.2901495E-1,7.374235E-2,4.8069913E-2,-2.522074E-1,2.2479907E-2,-7.234126E-3],"categories":[],"categories_nodes":[],"categories_segments":[],"categories_sizes":[],"default_left":[0,0,0,0,0,0,0,0,0,0,0,0,0,0,0,0,0,0,0,0,0,0,0,0,0,0,0,0,0,0,0,0,0,0,0,0,0,0,0,0,0,0,0,0,0,0,0,0,0,0,0,0,0],"id":33,"left_children":[1,3,-1,5,7,9,11,13,15,17,19,21,23,-1,25,27,29,-1,31,33,35,37,39,41,43,-1,-1,45,47,49,51,-1,-1,-1,-1,-1,-1,-1,-1,-1,-1,-1,-1,-1,-1,-1,-1,-1,-1,-1,-1,-1,-1],"loss_changes":[1.3461185E0,1.3259766E0,0E0,2.6828625E0,1.9740096E0,5.139382E0,2.731291E0,1.1618236E0,2.2443752E0,1.2336481E0,3.8490605E0,2.7525854E0,2.3771572E0,0E0,1.3029535E0,5.332563E0,3.068011E0,0E0,1.9749892E0,2.2862062E0,1.1085191E0,2.3587847E0,4.030375E0,3.6020937E0,2.838531E0,0E0,0E0,2.4410353E0,5.5398097E0,1.4839244E0,1.7822368E0,0E0,0E0,0E0,0E0,0E0,0E0,0E0,0E0,0E0,0E0,0E0,0E0,0E0,0E0,0E0,0E0,0E0,0E0,0E0,0E0,0E0,0E0],"parents":[2147483647,0,0,1,1,3,3,4,4,5,5,6,6,7,7,8,8,9,9,10,10,11,11,12,12,14,14,15,15,16,16,18,18,19,19,20,20,21,21,22,22,23,23,24,24,27,27,28,28,29,29,30,30],"right_children":[2,4,-1,6,8,10,12,14,16,18,20,22,24,-1,26,28,30,-1,32,34,36,38,40,42,44,-1,-1,46,48,50,52,-1,-1,-1,-1,-1,-1,-1,-1,-1,-1,-1,-1,-1,-1,-1,-1,-1,-1,-1,-1,-1,-1],"split_conditions":[1.1894791E0,1.1873431E0,1.997759E-1,-9.7710073E-1,-1.2722929E0,5.357364E-1,-1.15891755E-1,4.1609016E-1,-4.2728865E-1,4.1609016E-1,-6.5403396E-1,4.5236465E-2,5.357364E-1,-2.4348223E-1,-1.5247359E0,-4.7112608E-1,-9.326513E-1,-2.1977079E-1,-4.42405E-1,-1.2882469E0,4.1015735E-1,-1.0863616E0,1.3413535E-1,1.705906E-1,-1.0379867E-1,1.4079016E-1,-1.6928543E-1,4.8973856E0,-4.5752135E-1,-1.3771458E0,7.564276E-1,-1.6708463E-1,2.3013912E-1,1.007842E-1,5.6751597E-1,1.1119489E-1,-1.5703443E-1,8.152167E-2,-1.8738106E-1,2.5853956E-1,-3.7981883E-2,-2.4017965E-2,3.9302003E-2,3.071245E-1,-1.983341E-2,4.0830337E-2,-1.7110802E-1,5.2901495E-1,7.374235E-2,4.8069913E-2,-2.522074E-1,2.2479907E-2,-7.234126E-3],"split_indices":[4,6,0,0,3,4,3,5,3,5,3,0,4,0,3,3,0,0,3,0,3,3,0,5,3,0,0,9,3,0,0,0,0,0,0,0,0,0,0,0,0,0,0,0,0,0,0,0,0,0,0,0,0],"split_type":[0,0,0,0,0,0,0,0,0,0,0,0,0,0,0,0,0,0,0,0,0,0,0,0,0,0,0,0,0,0,0,0,0,0,0,0,0,0,0,0,0,0,0,0,0,0,0,0,0,0,0,0,0],"sum_hessian":[1.8106388E3,1.808651E3,1.987732E0,9.760381E2,8.326129E2,1.4094038E1,9.619441E2,6.390369E0,8.2622253E2,5.213064E0,8.880974E0,1.8501424E2,7.769299E2,3.4707804E0,2.9195886E0,7.662046E1,7.4960205E2,2.6763535E0,2.5367107E0,4.4660096E0,4.4149647E0,2.0035894E1,1.6497833E2,3.4160077E2,4.3532907E2,1.6842858E0,1.2353028E0,6.6727066E1,9.893392E0,6.7274256E0,7.4287463E2,1.2782763E0,1.2584343E0,2.0155392E0,2.4504704E0,3.3587134E0,1.056251E0,2.9132752E0,1.7122618E1,3.2439635E0,1.6173438E2,1.2941321E2,2.1218756E2,1.4060367E0,4.3392303E2,6.241145E1,4.315621E0,3.0960836E0,6.7973084E0,1.5772346E0,5.150191E0,3.1343817E2,4.2943646E2],"tree_param":{"num_deleted":"0","num_feature":"13","num_nodes":"53","size_leaf_vector":"1"}},{"base_weights":[-3.8600424E-3,-1.989068E-1,-2.7759657E-3,-7.3961355E-3,1.3911441E-1,2.1491158E-1,-8.325779E-3,2.1145658E-1,-2.9328898E-1,-5.120738E-1,-6.064082E-3,9.569641E-2,5.5344695E-1,-9.471402E-2,-2.4781105E-1,2.9599909E-2,-2.5228864E-1,1.0807788E0,-9.003326E-3,2.4483818E-1,-2.589491E-1,-1.6400954E-1,8.974372E-1,-4.4280475E-1,1.5660302E-1,-1.6635671E-1,1.562525E-1,4.0526674E-3,5.264908E-1,-1.8389465E-1,-1.5575137E-3,-3.524301E-2,1.7854246E-1,-1.7515764E-1,5.4308716E-2,1.5680033E-1,-2.0923012E-1,1.6918597E-1,3.8279796E-1,-1.9578408E-1,-2.2325158E-2,1.4930533E-1,-1.3770784E-1],"categories":[],"categories_nodes":[],"categories_segments":[],"categories_sizes":[],"default_left":[0,0,0,0,0,0,0,0,0,0,0,0,0,0,0,0,0,0,0,0,0,0,0,0,0,0,0,0,0,0,0,0,0,0,0,0,0,0,0,0,0,0,0],"id":34,"left_children":[1,-1,3,5,7,-1,9,11,13,15,17,19,21,23,-1,25,-1,27,29,31,33,35,37,39,41,-1,-1,-1,-1,-1,-1,-1,-1,-1,-1,-1,-1,-1,-1,-1,-1,-1,-1],"loss_changes":[1.2912868E0,0E0,1.1860532E0,1.184524E0,1.8467393E0,0E0,1.9911075E0,1.9050341E0,8.3115965E-1,1.4165084E0,5.5794435E0,2.08177E0,3.1824112E0,7.1597093E-1,0E0,1.4128076E0,0E0,3.36587E0,4.002124E0,3.5446048E0,1.7900963E0,2.1341157E0,3.4933043E-1,2.1116167E-1,1.284905E0,0E0,0E0,0E0,0E0,0E0,0E0,0E0,0E0,0E0,0E0,0E0,0E0,0E0,0E0,0E0,0E0,0E0,0E0],"parents":[2147483647,0,0,2,2,3,3,4,4,6,6,7,7,8,8,9,9,10,10,11,11,12,12,13,13,15,15,17,17,18,18,19,19,20,20,21,21,22,22,23,23,24,24],"right_children":[2,-1,4,6,8,-1,10,12,14,16,18,20,22,24,-1,26,-1,28,30,32,34,36,38,40,42,-1,-1,-1,-1,-1,-1,-1,-1,-1,-1,-1,-1,-1,-1,-1,-1,-1,-1],"split_conditions":[1.6216907E-1,-1.989068E-1,3.0842404E0,-1.9585752E0,3.1068413E0,2.1491158E-1,-1.5504338E0,3.492727E0,4.912588E0,-1.3771458E0,-1.4370611E0,7.564276E-1,3.5638258E-1,5.357364E-1,-2.4781105E-1,-1.6438423E0,-2.5228864E-1,6.2912816E-1,-1.2450833E0,1.3413535E-1,1.0675737E0,5.357364E-1,5.1429E-1,-4.366242E-2,7.1197814E-1,-1.6635671E-1,1.562525E-1,4.0526674E-3,5.264908E-1,-1.8389465E-1,-1.5575137E-3,-3.524301E-2,1.7854246E-1,-1.7515764E-1,5.4308716E-2,1.5680033E-1,-2.0923012E-1,1.6918597E-1,3.8279796E-1,-1.9578408E-1,-2.2325158E-2,1.4930533E-1,-1.3770784E-1],"split_indices":[4,0,3,3,10,0,3,1,2,0,3,0,0,4,0,0,0,4,3,0,0,4,5,0,0,0,0,0,0,0,0,0,0,0,0,0,0,0,0,0,0,0,0],"split_type":[0,0,0,0,0,0,0,0,0,0,0,0,0,0,0,0,0,0,0,0,0,0,0,0,0,0,0,0,0,0,0,0,0,0,0,0,0,0,0,0,0,0,0],"sum_hessian":[1.8086255E3,1.9670678E0,1.8066584E3,1.750604E3,5.605449E1,1.2584485E0,1.7493455E3,4.8458275E1,7.596216E0,6.811482E0,1.742534E3,3.715987E1,1.1298406E1,6.3916097E0,1.2046069E0,2.9170864E0,3.8943956E0,3.7107353E0,1.7388232E3,2.6376982E1,1.07828865E1,3.8311129E0,7.467293E0,2.3603842E0,4.031225E0,1.2737213E0,1.643365E0,1.8314753E0,1.87926E0,9.902347E0,1.7289209E3,1.32929125E1,1.3084069E1,6.014416E0,4.7684703E0,1.6837653E0,2.1473477E0,5.293659E0,2.173633E0,1.0123035E0,1.3480808E0,2.7173157E0,1.3139095E0],"tree_param":{"num_deleted":"0","num_feature":"13","num_nodes":"43","size_leaf_vector":"1"}},{"base_weights":[-3.0161678E-3,-1.931316E-1,-2.0219912E-3,-2.9960193E-3,1.911879E-1,-1.0122799E-2,8.224519E-2,-4.6987157E-2,1.3103597E-2,2.00624E-1,-8.871462E-3,-7.641611E-2,7.747397E-2,3.044252E-1,1.2312826E-3,2.7360255E-1,-3.9197803E-1,-6.8723224E-2,3.138858E-1,-4.98651E-3,-5.2177273E-2,-4.8749518E-2,4.342516E-2,1.3231082E-2,1.8296367E-1,3.2566473E-2,-5.6499336E-3,-6.6920996E-2,1.08251065E-1,-3.6780834E-3,-2.3632841E-1,-1.6454956E-1,-9.1341784E-4,2.2198683E-1,-6.1280195E-2],"categories":[],"categories_nodes":[],"categories_segments":[],"categories_sizes":[],"default_left":[0,0,0,0,0,0,0,0,0,0,0,0,0,0,0,0,0,0,0,0,0,0,0,0,0,0,0,0,0,0,0,0,0,0,0],"id":35,"left_children":[1,-1,3,5,-1,7,9,11,13,15,17,19,21,23,25,27,29,31,33,-1,-1,-1,-1,-1,-1,-1,-1,-1,-1,-1,-1,-1,-1,-1,-1],"loss_changes":[1.1495482E0,0E0,1.1257819E0,1.096181E0,0E0,1.4260864E0,1.5035203E0,2.3636808E0,3.5347865E0,2.7278922E0,1.5598326E0,3.0354426E0,2.0189154E0,3.1553032E0,2.119033E0,2.4436064E0,1.0506544E0,2.1408799E0,2.9408374E0,0E0,0E0,0E0,0E0,0E0,0E0,0E0,0E0,0E0,0E0,0E0,0E0,0E0,0E0,0E0,0E0],"parents":[2147483647,0,0,2,2,3,3,5,5,6,6,7,7,8,8,9,9,10,10,11,11,12,12,13,13,14,14,15,15,16,16,17,17,18,18],"right_children":[2,-1,4,6,-1,8,10,12,14,16,18,20,22,24,26,28,30,32,34,-1,-1,-1,-1,-1,-1,-1,-1,-1,-1,-1,-1,-1,-1,-1,-1],"split_conditions":[-1.7327412E0,-1.931316E-1,2.0118372E0,3.8032768E0,1.911879E-1,6.675287E-1,7.564276E-1,1.8174899E0,7.1197814E-1,1.5208383E0,1.4531858E0,4.8974004E-1,-1.3256131E-1,6.2912816E-1,2.5556087E-1,2.5556087E-1,6.2912816E-1,-1.9765876E-1,1.9686534E0,-4.98651E-3,-5.2177273E-2,-4.8749518E-2,4.342516E-2,1.3231082E-2,1.8296367E-1,3.2566473E-2,-5.6499336E-3,-6.6920996E-2,1.08251065E-1,-3.6780834E-3,-2.3632841E-1,-1.6454956E-1,-9.1341784E-4,2.2198683E-1,-6.1280195E-2],"split_indices":[0,0,5,12,0,0,0,3,0,5,3,5,0,4,4,4,4,5,3,0,0,0,0,0,0,0,0,0,0,0,0,0,0,0,0],"split_type":[0,0,0,0,0,0,0,0,0,0,0,0,0,0,0,0,0,0,0,0,0,0,0,0,0,0,0,0,0,0,0,0,0,0,0],"sum_hessian":[1.8056023E3,1.7955745E0,1.8038068E3,1.8020565E3,1.7502089E0,1.6638296E3,1.3822691E2,6.4271124E2,1.02111835E3,5.9596832E1,7.863008E1,5.201155E2,1.2259578E2,3.901953E1,9.820988E2,5.354153E1,6.0553007E0,6.699388E1,1.1636198E1,3.2313284E2,1.9698264E2,2.6534187E1,9.606159E1,2.1683905E1,1.7335627E1,1.5399194E2,8.281069E2,7.7663465E0,4.5775185E1,3.61654E0,2.438761E0,7.181612E0,5.9812267E1,6.150588E0,5.4856095E0],"tree_param":{"num_deleted":"0","num_feature":"13","num_nodes":"35","size_leaf_vector":"1"}},{"base_weights":[-2.648131E-3,-1.8629506E-1,-1.7405957E-3,-2.6389973E-3,1.8528226E-1,-2.0140884E-2,2.539857E-2,-4.1624203E-2,3.4057535E-2,9.2045896E-2,-1.4542897E-2,-2.1310057E-2,-1.656982E-1,5.66857E-1,2.3685392E-2,-3.7904773E-2,2.4661502E-1,-5.832677E-1,-9.154526E-4,-1.0460466E-2,3.2497298E-2,1.5998162E-2,-1.0447787E-1,-8.182051E-2,2.7494034E-1,-2.599314E-1,1.083183E-2,2.785835E-1,-2.2200216E-2,-7.712477E-2,9.189932E-2,7.453178E-3,-2.3349312E-1,-2.3550577E-1,2.2600174E-3],"categories":[],"categories_nodes":[],"categories_segments":[],"categories_sizes":[],"default_left":[0,0,0,0,0,0,0,0,0,0,0,0,0,0,0,0,0,0,0,0,0,0,0,0,0,0,0,0,0,0,0,0,0,0,0],"id":36,"left_children":[1,-1,3,5,-1,7,9,11,13,15,17,19,21,23,25,27,29,31,33,-1,-1,-1,-1,-1,-1,-1,-1,-1,-1,-1,-1,-1,-1,-1,-1],"loss_changes":[1.0100569E0,0E0,1.0033193E0,8.831115E-1,0E0,1.2914419E0,1.8426201E0,1.9973946E0,1.7276237E0,5.218365E0,3.3581378E0,1.2048014E0,4.4787035E0,2.0030427E0,3.4594846E0,5.014058E0,3.6454768E0,1.2219472E0,2.816292E0,0E0,0E0,0E0,0E0,0E0,0E0,0E0,0E0,0E0,0E0,0E0,0E0,0E0,0E0,0E0,0E0],"parents":[2147483647,0,0,2,2,3,3,5,5,6,6,7,7,8,8,9,9,10,10,11,11,12,12,13,13,14,14,15,15,16,16,17,17,18,18],"right_children":[2,-1,4,6,-1,8,10,12,14,16,18,20,22,24,26,28,30,32,34,-1,-1,-1,-1,-1,-1,-1,-1,-1,-1,-1,-1,-1,-1,-1,-1],"split_conditions":[-2.958586E-1,-1.8629506E-1,1.1894791E0,1.3603402E0,1.8528226E-1,3.1068413E0,2.1667063E-2,1.5565175E0,-1.0440359E0,-1.15891755E-1,6.550449E-2,4.912588E0,5.357364E-1,5.357364E-1,-8.77756E-1,-1.1104491E0,-8.811186E-2,3.5271782E-2,-7.548535E-1,-1.0460466E-2,3.2497298E-2,1.5998162E-2,-1.0447787E-1,-8.182051E-2,2.7494034E-1,-2.599314E-1,1.083183E-2,2.785835E-1,-2.2200216E-2,-7.712477E-2,9.189932E-2,7.453178E-3,-2.3349312E-1,-2.3550577E-1,2.2600174E-3],"split_indices":[5,0,4,11,0,10,3,0,3,3,3,2,4,4,3,0,0,3,0,0,0,0,0,0,0,0,0,0,0,0,0,0,0,0,0],"split_type":[0,0,0,0,0,0,0,0,0,0,0,0,0,0,0,0,0,0,0,0,0,0,0,0,0,0,0,0,0,0,0,0,0,0,0],"sum_hessian":[1.8008667E3,1.6379259E0,1.7992288E3,1.797617E3,1.6118121E0,1.1069237E3,6.906932E2,7.928741E2,3.1404962E2,2.5833105E2,4.3236215E2,6.8233057E2,1.1054354E2,4.9724298E0,3.0907718E2,1.4075179E2,1.1757926E2,9.139401E0,4.2322275E2,6.18386E2,6.394455E1,5.05749E1,5.996864E1,1.526477E0,3.4459531E0,3.307251E0,3.0576993E2,4.177141E0,1.3657465E2,1.2111884E1,1.0546738E2,2.431378E0,6.7080235E0,3.5318446E0,4.196909E2],"tree_param":{"num_deleted":"0","num_feature":"13","num_nodes":"35","size_leaf_vector":"1"}},{"base_weights":[-2.7177457E-3,-1.8279898E-1,-1.8528737E-3,-1.792672E-1,-1.0305324E-3,1.8729888E-1,-1.84212E-3,-4.6936342E-1,-4.007342E-4,9.2538947E-4,-2.2256862E-1,5.4625624E-1,-2.5029127E-3,-4.385262E-2,2.815474E-1,-1.5753908E-1,7.231E-5],"categories":[],"categories_nodes":[],"categories_segments":[],"categories_sizes":[],"default_left":[0,0,0,0,0,0,0,0,0,0,0,0,0,0,0,0,0],"id":37,"left_children":[1,-1,3,-1,5,-1,7,9,11,-1,-1,13,15,-1,-1,-1,-1],"loss_changes":[9.431517E-1,0E0,8.803207E-1,0E0,9.130986E-1,0E0,1.2097535E0,7.12731E-1,2.0594988E0,0E0,0E0,2.0017955E0,2.5600777E0,0E0,0E0,0E0,0E0],"parents":[2147483647,0,0,2,2,4,4,6,6,7,7,8,8,11,11,12,12],"right_children":[2,-1,4,-1,6,-1,8,10,12,-1,-1,14,16,-1,-1,-1,-1],"split_conditions":[1.6216907E-1,-1.8279898E-1,-1.7327412E0,-1.792672E-1,-1.9585752E0,1.8729888E-1,-1.6078758E0,-1.4215952E0,-1.4370611E0,9.2538947E-4,-2.2256862E-1,6.2912816E-1,-1.2450833E0,-4.385262E-2,2.815474E-1,-1.5753908E-1,7.231E-5],"split_indices":[4,0,0,0,3,0,3,0,3,0,0,4,3,0,0,0,0],"split_type":[0,0,0,0,0,0,0,0,0,0,0,0,0,0,0,0,0],"sum_hessian":[1.7988574E3,1.5594279E0,1.7972981E3,1.477314E0,1.7958207E3,1.3318198E0,1.7944889E3,4.5176916E0,1.7899712E3,2.0143664E0,2.5033252E0,5.8653874E0,1.7841058E3,2.3478827E0,3.517505E0,8.323834E0,1.775782E3],"tree_param":{"num_deleted":"0","num_feature":"13","num_nodes":"17","size_leaf_vector":"1"}},{"base_weights":[-2.2661325E-3,-3.0671144E-3,1.7700349E-1,-2.0450547E-2,2.337674E-2,-3.498349E-2,1.8356043E-1,1.440386E-1,4.5941267E-3,-5.498936E-2,6.1891753E-2,8.8590705E-1,5.48269E-2,3.761902E-1,-3.8471647E-2,-2.5940126E-1,2.2799304E-2,-2.0222208E-2,-1.400444E-1,2.809317E-1,-1.161181E-2,1.2511799E0,1.3455014E-1,-2.86509E-1,2.7752295E-1,-2.541519E-1,5.8081883E-1,-1.0686737E-1,8.6801165E-1,-4.8626564E-2,-1.0779281E0,-2.4216693E-2,1.0092324E-1,-1.1545811E-2,7.984574E-2,-3.089322E-2,-1.9412296E-1,-3.5060707E-2,1.7997833E-1,-7.5381175E-2,4.1380424E-2,3.382017E-2,5.010373E-1,3.0673042E-1,-1.3062745E-1,-2.7056697E-1,-9.120741E-5,1.4113408E-1,-2.3419465E-1,-1.5028822E-1,2.464376E-1,5.966411E-1,1.0276265E-1,1.16166614E-1,-5.8568507E-2,3.6714303E-1,1.3702816E-2,-6.70197E-2,1.7317884E-1,-3.7492013E-1,-9.65446E-3,-3.2044293E-3,-2.730475E-1,1.211757E-2,1.467354E-1],"categories":[],"categories_nodes":[],"categories_segments":[],"categories_sizes":[],"default_left":[0,0,0,0,0,0,0,0,0,0,0,0,0,0,0,0,0,0,0,0,0,0,0,0,0,0,0,0,0,0,0,0,0,0,0,0,0,0,0,0,0,0,0,0,0,0,0,0,0,0,0,0,0,0,0,0,0,0,0,0,0,0,0,0,0],"id":38,"left_children":[1,3,-1,5,7,9,11,13,15,17,19,21,23,25,27,29,31,33,35,37,39,41,43,45,47,49,51,53,55,57,59,61,63,-1,-1,-1,-1,-1,-1,-1,-1,-1,-1,-1,-1,-1,-1,-1,-1,-1,-1,-1,-1,-1,-1,-1,-1,-1,-1,-1,-1,-1,-1,-1,-1],"loss_changes":[8.552541E-1,8.2678413E-1,0E0,3.2236466E0,1.616233E0,1.9682078E0,6.490177E0,4.084717E0,2.977866E0,2.4835067E0,2.804628E0,2.8879738E0,4.8062787E0,5.61336E0,3.4834876E0,6.8439074E0,2.1306238E0,3.1379783E0,4.515264E0,5.6227713E0,4.7382565E0,3.3281384E0,2.8557982E0,4.4105234E0,8.153235E0,3.3530612E0,1.015313E1,2.3346019E0,1.0988014E0,3.7206943E0,1.4219322E0,4.3374386E0,5.0999384E0,0E0,0E0,0E0,0E0,0E0,0E0,0E0,0E0,0E0,0E0,0E0,0E0,0E0,0E0,0E0,0E0,0E0,0E0,0E0,0E0,0E0,0E0,0E0,0E0,0E0,0E0,0E0,0E0,0E0,0E0,0E0,0E0],"parents":[2147483647,0,0,1,1,3,3,4,4,5,5,6,6,7,7,8,8,9,9,10,10,11,11,12,12,13,13,14,14,15,15,16,16,17,17,18,18,19,19,20,20,21,21,22,22,23,23,24,24,25,25,26,26,27,27,28,28,29,29,30,30,31,31,32,32],"right_children":[2,4,-1,6,8,10,12,14,16,18,20,22,24,26,28,30,32,34,36,38,40,42,44,46,48,50,52,54,56,58,60,62,64,-1,-1,-1,-1,-1,-1,-1,-1,-1,-1,-1,-1,-1,-1,-1,-1,-1,-1,-1,-1,-1,-1,-1,-1,-1,-1,-1,-1,-1,-1,-1,-1],"split_conditions":[2.0118372E0,1.0675737E0,1.7700349E-1,4.912588E0,1.1564726E0,3.492727E0,4.00832E-1,7.910921E-2,1.200922E0,9.0930367E-1,2.1667063E-2,1.1448121E0,5.357364E-1,-3.8496286E-1,4.8973856E0,4.912588E0,2.801567E-1,4.8973856E0,9.7867477E-1,-3.1240175E-2,9.331832E-1,4.4234455E-1,4.4234455E-1,6.675287E-1,1.5208383E0,4.912588E0,-2.0961314E-1,2.5556087E-1,1.1120231E0,3.1068413E0,1.0026954E0,2.6050547E-1,1.0026954E0,-1.1545811E-2,7.984574E-2,-3.089322E-2,-1.9412296E-1,-3.5060707E-2,1.7997833E-1,-7.5381175E-2,4.1380424E-2,3.382017E-2,5.010373E-1,3.0673042E-1,-1.3062745E-1,-2.7056697E-1,-9.120741E-5,1.4113408E-1,-2.3419465E-1,-1.5028822E-1,2.464376E-1,5.966411E-1,1.0276265E-1,1.16166614E-1,-5.8568507E-2,3.6714303E-1,1.3702816E-2,-6.70197E-2,1.7317884E-1,-3.7492013E-1,-9.65446E-3,-3.2044293E-3,-2.730475E-1,1.211757E-2,1.467354E-1],"split_indices":[5,0,0,2,0,1,0,3,0,4,3,3,4,3,9,2,3,9,0,3,3,4,4,0,5,2,3,4,0,10,4,3,4,0,0,0,0,0,0,0,0,0,0,0,0,0,0,0,0,0,0,0,0,0,0,0,0,0,0,0,0,0,0,0,0],"split_type":[0,0,0,0,0,0,0,0,0,0,0,0,0,0,0,0,0,0,0,0,0,0,0,0,0,0,0,0,0,0,0,0,0,0,0,0,0,0,0,0,0,0,0,0,0,0,0,0,0,0,0,0,0,0,0,0,0,0,0,0,0,0,0,0,0],"sum_hessian":[1.7979833E3,1.7965486E3,1.4347869E0,1.0841113E3,7.1243713E2,1.01279254E3,7.1318855E1,9.5064186E1,6.17373E2,8.39797E2,1.7299551E2,1.0136151E1,6.1182705E1,4.13747E1,5.3689487E1,3.897295E1,5.784E2,5.9700336E2,2.4279369E2,4.275725E1,1.3023825E2,6.3727875E0,3.763364E0,2.4043556E1,3.713915E1,1.0080503E1,3.1294197E1,5.074295E1,2.9465353E0,3.1834751E1,7.138199E0,3.6152164E2,2.1687837E2,5.620252E2,3.49781E1,2.2737439E2,1.5419295E1,1.9310244E1,2.3447008E1,4.9780815E1,8.045744E1,2.055696E0,4.3170915E0,1.1609921E0,2.6023717E0,6.949644E0,1.7093912E1,3.1881912E1,5.2572374E0,8.63368E0,1.4468231E0,3.4661257E0,2.7828072E1,7.184879E0,4.355807E1,1.7159054E0,1.23063E0,2.5388401E1,6.446351E0,5.963407E0,1.1747916E0,3.570783E2,4.4433236E0,1.8857747E2,2.8300901E1],"tree_param":{"num_deleted":"0","num_feature":"13","num_nodes":"65","size_leaf_vector":"1"}},{"base_weights":[-2.3216961E-3,-8.356957E-3,6.920293E-2,-2.9807452E-2,2.1494584E-2,-1.893566E-1,8.13215E-2,2.3156492E-1,-3.50908E-2,-2.5616673E-1,2.8182609E-2,4.777898E-1,4.731904E-2,-3.5488307E-1,3.9308575E-1,-3.7088123E-1,-2.90073E-2,-2.5509626E-1,-5.1397574E-3,3.447255E-1,1.4094227E-2,-6.1504427E-2,9.3520945E-1,-3.425338E-1,8.474642E-2,1.46143E-2,-1.9204989E-1,1.0837069E0,7.884775E-2,7.60278E-2,-7.5208884E-1,5.1765066E-1,-3.522443E-2,-2.3430179E-1,3.4798634E-1,1.4839051E0,1.1183126E-1,-6.261342E-1,2.039192E-2,-5.391301E-1,1.6522455E-1,1.3237523E0,2.9824863E-3,-7.756927E-1,6.5934366E-1,4.210298E-2,4.262143E-1,9.691628E-2,5.9085166E-1,-1.4435543E-1,8.580239E-2,3.2020584E-1,-1.0345127E-1,-2.5157106E-1,-2.1306941E-2,-1.3094766E-1,2.581216E-1,-2.4321674E-1,-8.935767E-3,-1.4634542E-1,2.0360093E-1,1.5442708E-1,5.454312E-1,-2.4272647E-2,2.6204842E-1,-8.794919E-2,-2.523475E-1,1.2027413E-1,3.4062474E-3,-2.0600575E-1,-2.3272248E-2,1.1359986E-1,4.6199217E-1,6.6429325E-3,-3.0108204E-1,-2.5665978E-2,2.873204E-1,1.6805924E-1,5.1254234E-3,-5.6220077E-2,2.694102E-1],"categories":[],"categories_nodes":[],"categories_segments":[],"categories_sizes":[],"default_left":[0,0,0,0,0,0,0,0,0,0,0,0,0,0,0,0,0,0,0,0,0,0,0,0,0,0,0,0,0,0,0,0,0,0,0,0,0,0,0,0,0,0,0,0,0,0,0,0,0,0,0,0,0,0,0,0,0,0,0,0,0,0,0,0,0,0,0,0,0,0,0,0,0,0,0,0,0,0,0,0,0],"id":39,"left_children":[1,3,5,7,9,-1,11,13,15,17,19,21,23,25,27,29,31,-1,33,35,37,39,41,43,45,-1,-1,47,49,51,53,55,57,59,-1,61,63,65,67,69,-1,71,-1,73,75,77,79,-1,-1,-1,-1,-1,-1,-1,-1,-1,-1,-1,-1,-1,-1,-1,-1,-1,-1,-1,-1,-1,-1,-1,-1,-1,-1,-1,-1,-1,-1,-1,-1,-1,-1],"loss_changes":[7.748765E-1,1.060415E0,1.2369423E0,1.3385773E0,1.2933636E0,0E0,1.8403885E0,1.9601649E0,1.920143E0,2.44005E0,3.0151727E0,2.723182E0,1.9023792E0,5.696005E-1,3.2880385E0,2.9082646E0,3.1772614E0,0E0,3.6165626E0,7.478461E0,2.631076E0,2.021506E0,2.110992E0,5.478057E0,1.6994926E0,0E0,0E0,2.586205E0,1.5022087E0,3.9610689E0,4.777956E-1,3.8146758E0,3.8559399E0,2.9465828E0,0E0,6.217718E-1,3.7413468E0,2.0855045E-1,2.2103128E0,2.0677722E-1,0E0,2.656417E-1,0E0,1.5586667E0,9.699118E-1,1.3638675E0,3.927486E0,0E0,0E0,0E0,0E0,0E0,0E0,0E0,0E0,0E0,0E0,0E0,0E0,0E0,0E0,0E0,0E0,0E0,0E0,0E0,0E0,0E0,0E0,0E0,0E0,0E0,0E0,0E0,0E0,0E0,0E0,0E0,0E0,0E0,0E0],"parents":[2147483647,0,0,1,1,2,2,3,3,4,4,6,6,7,7,8,8,9,9,10,10,11,11,12,12,13,13,14,14,15,15,16,16,18,18,19,19,20,20,21,21,22,22,23,23,24,24,27,27,28,28,29,29,30,30,31,31,32,32,33,33,35,35,36,36,37,37,38,38,39,39,41,41,43,43,44,44,45,45,46,46],"right_children":[2,4,6,8,10,-1,12,14,16,18,20,22,24,26,28,30,32,-1,34,36,38,40,42,44,46,-1,-1,48,50,52,54,56,58,60,-1,62,64,66,68,70,-1,72,-1,74,76,78,80,-1,-1,-1,-1,-1,-1,-1,-1,-1,-1,-1,-1,-1,-1,-1,-1,-1,-1,-1,-1,-1,-1,-1,-1,-1,-1,-1,-1,-1,-1,-1,-1,-1,-1],"split_conditions":[3.8032768E0,1.3603402E0,-1.2208972E0,-1.1483387E0,-9.850821E-1,-1.893566E-1,-5.9659183E-1,-1.4215952E0,-9.125236E-1,4.4234455E-1,-6.842667E-1,4.1609016E-1,-2.761251E-1,6.2912816E-1,3.1193313E-1,4.1609016E-1,-8.248488E-1,-2.5509626E-1,3.492727E0,-5.7705575E-1,-6.419409E-1,-8.248488E-1,-7.447321E-1,9.0930367E-1,1.6898658E0,1.46143E-2,-1.9204989E-1,3.1361926E0,9.342253E-1,4.4234455E-1,1.0026954E0,4.4528145E-1,-7.749648E-1,1.6454164E0,3.4798634E-1,6.2912816E-1,4.912588E0,1.0231242E0,-5.4368454E-1,-9.125236E-1,1.6522455E-1,5.357364E-1,2.9824863E-3,6.2307924E-1,1.705906E-1,-1.4158955E-1,3.5271782E-2,9.691628E-2,5.9085166E-1,-1.4435543E-1,8.580239E-2,3.2020584E-1,-1.0345127E-1,-2.5157106E-1,-2.1306941E-2,-1.3094766E-1,2.581216E-1,-2.4321674E-1,-8.935767E-3,-1.4634542E-1,2.0360093E-1,1.5442708E-1,5.454312E-1,-2.4272647E-2,2.6204842E-1,-8.794919E-2,-2.523475E-1,1.2027413E-1,3.4062474E-3,-2.0600575E-1,-2.3272248E-2,1.1359986E-1,4.6199217E-1,6.6429325E-3,-3.0108204E-1,-2.5665978E-2,2.873204E-1,1.6805924E-1,5.1254234E-3,-5.6220077E-2,2.694102E-1],"split_indices":[12,11,3,3,3,0,3,0,3,4,3,5,3,4,0,5,3,0,1,0,3,3,3,4,0,0,0,8,0,4,4,0,3,0,0,4,2,0,3,3,0,4,0,0,5,3,3,0,0,0,0,0,0,0,0,0,0,0,0,0,0,0,0,0,0,0,0,0,0,0,0,0,0,0,0,0,0,0,0,0,0],"split_type":[0,0,0,0,0,0,0,0,0,0,0,0,0,0,0,0,0,0,0,0,0,0,0,0,0,0,0,0,0,0,0,0,0,0,0,0,0,0,0,0,0,0,0,0,0,0,0,0,0,0,0,0,0,0,0,0,0,0,0,0,0,0,0,0,0,0,0,0,0,0,0,0,0,0,0,0,0,0,0,0,0],"sum_hessian":[1.7927281E3,1.654043E3,1.3868527E2,9.624525E2,6.9159045E2,1.4899402E0,1.3719533E2,1.8220829E1,9.442317E2,1.5389151E1,6.762013E2,9.80599E0,1.27389336E2,3.676197E0,1.4544631E1,1.5735142E1,9.284965E2,3.8616552E0,1.1527495E1,2.7813292E1,6.48388E2,4.8974614E0,4.908529E0,1.0444535E1,1.169448E2,1.8658184E0,1.8103787E0,3.7826269E0,1.0762005E1,7.6118937E0,8.123248E0,9.515984E0,9.189805E2,1.030041E1,1.2270857E0,3.80923E0,2.4004063E1,5.357111E0,6.430309E2,2.8183026E0,2.0791588E0,3.1535892E0,1.7549394E0,7.4495177E0,2.995017E0,1.04960365E2,1.1984437E1,2.7692888E0,1.013338E0,2.548818E0,8.213186E0,1.8107295E0,5.801164E0,7.002779E0,1.1204693E0,2.442684E0,7.0733E0,5.3687177E0,9.136118E2,8.426264E0,1.8741456E0,1.6281129E0,2.181117E0,1.9869762E1,4.1342998E0,3.0294034E0,2.3277075E0,1.3912339E1,6.291185E2,1.7659726E0,1.05233E0,1.0994172E0,2.054172E0,1.8558333E0,5.5936847E0,1.0606122E0,1.934405E0,3.849558E0,1.0111081E2,5.4714622E0,6.5129747E0],"tree_param":{"num_deleted":"0","num_feature":"13","num_nodes":"81","size_leaf_vector":"1"}},{"base_weights":[-1.9911297E-3,-2.1729296E-2,2.088845E-2,5.62001E-2,-4.8040748E-2,-1.0758944E-1,3.8343553E-2,-9.957752E-2,9.8583326E-2,3.3956897E-1,-5.7695147E-2,-1.8759501E-1,3.5531372E-1,1.5022752E-1,2.2992572E-2,2.7627394E-1,-3.3256444E-1,4.08346E-2,3.1577805E-1,6.0928185E-2,9.617309E-1,-4.9582982E-1,-4.5328043E-2,-1.1180828E-1,-6.2211734E-1,-6.682825E-2,9.7505295E-1,-5.133542E-2,3.3565605E-1,-4.4437835E-1,3.208332E-2,-2.2793931E-1,6.598267E-1,-6.1405396E-1,8.2244895E-2,1.3610253E-1,-6.998917E-2,4.6724334E-1,-4.9933672E-1,4.5746642E-1,-4.345458E-1,-6.836171E-3,1.1968881E0,-7.465698E-1,-2.0977475E-2,-1.21577404E-1,1.1583325E-2,-2.2296815E-1,6.51052E-1,-9.347705E-1,-5.543892E-2,2.3264813E-1,-4.0132427E-1,1.3027041E0,-8.643141E-2,-2.0457208E-1,3.1578526E-1,1.611641E-1,7.9452807E-1,-2.8289452E-1,-6.807877E-2,-4.7387308E-1,3.8144004E-2,-1.8034211E-1,1.5803435E-1,2.4552988E-1,-8.30439E-2,-2.0727374E-1,7.444479E-2,2.5827795E-1,-5.9972633E-2,1.6873354E-1,1.2907484E-2,4.467602E-2,-7.526206E-2,3.4238815E-1,5.841512E-2,-2.1651448E-1,6.911207E-2,3.7704405E-1,-1.270816E-2,-4.335082E-2,-2.1488708E-1,5.6035346E-1,7.911951E-2,-2.3927972E-1,-4.7135595E-2,1.4163597E-1,-1.7615196E-1,-1.1415976E-1,-2.0419396E-2,-2.8282022E-3,1.013686E-1,-1.4584301E-2,-1.2859617E-1,2.9847315E-1,5.7308085E-2,-3.0739206E-1,-9.3363926E-2,8.4600694E-2,-2.1102418E-1,-1.6606542E-1,9.042095E-2,1.1769624E-1,5.301955E-1,1.9944882E-1,-1.09220564E-1,-1.4156905E-1,1.8492016E-1,3.1236234E-1,7.435333E-3,6.1951424E-3,3.366E-1,8.5420914E-2,-2.3930915E-1,8.925084E-2,-2.4526802E-1,2.1623331E-1,9.157098E-3],"categories":[],"categories_nodes":[],"categories_segments":[],"categories_sizes":[],"default_left":[0,0,0,0,0,0,0,0,0,0,0,0,0,0,0,0,0,0,0,0,0,0,0,0,0,0,0,0,0,0,0,0,0,0,0,0,0,0,0,0,0,0,0,0,0,0,0,0,0,0,0,0,0,0,0,0,0,0,0,0,0,0,0,0,0,0,0,0,0,0,0,0,0,0,0,0,0,0,0,0,0,0,0,0,0,0,0,0,0,0,0,0,0,0,0,0,0,0,0,0,0,0,0,0,0,0,0,0,0,0,0,0,0,0,0,0,0,0,0],"id":40,"left_children":[1,3,5,7,9,11,13,15,17,19,21,23,25,27,29,31,33,35,37,39,41,43,45,47,49,51,53,55,57,59,61,63,65,67,69,71,73,75,77,79,81,-1,83,85,87,89,91,93,95,97,99,-1,101,103,-1,105,107,109,111,-1,113,115,117,-1,-1,-1,-1,-1,-1,-1,-1,-1,-1,-1,-1,-1,-1,-1,-1,-1,-1,-1,-1,-1,-1,-1,-1,-1,-1,-1,-1,-1,-1,-1,-1,-1,-1,-1,-1,-1,-1,-1,-1,-1,-1,-1,-1,-1,-1,-1,-1,-1,-1,-1,-1,-1,-1,-1,-1],"loss_changes":[8.1003827E-1,1.9770856E0,1.867246E0,1.6175523E0,2.7154338E0,3.7565699E0,1.2540419E0,4.696227E0,2.3944206E0,3.0016496E0,3.7907562E0,2.7495227E0,3.9967592E0,3.3120396E0,2.754703E0,4.147289E0,3.8935409E0,1.622414E0,5.192029E0,2.8040078E0,1.275784E0,2.2725892E0,2.9762356E0,6.4297614E0,2.1618423E0,3.093519E0,2.9219246E0,2.4896314E0,3.5589433E0,2.2574193E0,1.9610536E0,3.0410142E0,2.0084724E0,1.4786024E0,3.2891815E0,3.2491517E0,2.85976E0,6.094512E0,1.2660105E0,3.190555E0,4.200958E-1,0E0,2.2445378E0,2.5212765E-1,2.4186552E0,4.035353E0,2.7007282E0,2.3256376E0,1.3412805E0,1.2880373E-1,1.4021604E0,0E0,9.934397E-1,1.4498138E0,0E0,4.5433955E0,3.3898287E0,4.128785E0,3.1272898E0,0E0,2.3198483E0,2.2513566E0,3.2398632E0,0E0,0E0,0E0,0E0,0E0,0E0,0E0,0E0,0E0,0E0,0E0,0E0,0E0,0E0,0E0,0E0,0E0,0E0,0E0,0E0,0E0,0E0,0E0,0E0,0E0,0E0,0E0,0E0,0E0,0E0,0E0,0E0,0E0,0E0,0E0,0E0,0E0,0E0,0E0,0E0,0E0,0E0,0E0,0E0,0E0,0E0,0E0,0E0,0E0,0E0,0E0,0E0,0E0,0E0,0E0,0E0],"parents":[2147483647,0,0,1,1,2,2,3,3,4,4,5,5,6,6,7,7,8,8,9,9,10,10,11,11,12,12,13,13,14,14,15,15,16,16,17,17,18,18,19,19,20,20,21,21,22,22,23,23,24,24,25,25,26,26,27,27,28,28,29,29,30,30,31,31,32,32,33,33,34,34,35,35,36,36,37,37,38,38,39,39,40,40,42,42,43,43,44,44,45,45,46,46,47,47,48,48,49,49,50,50,52,52,53,53,55,55,56,56,57,57,58,58,60,60,61,61,62,62],"right_children":[2,4,6,8,10,12,14,16,18,20,22,24,26,28,30,32,34,36,38,40,42,44,46,48,50,52,54,56,58,60,62,64,66,68,70,72,74,76,78,80,82,-1,84,86,88,90,92,94,96,98,100,-1,102,104,-1,106,108,110,112,-1,114,116,118,-1,-1,-1,-1,-1,-1,-1,-1,-1,-1,-1,-1,-1,-1,-1,-1,-1,-1,-1,-1,-1,-1,-1,-1,-1,-1,-1,-1,-1,-1,-1,-1,-1,-1,-1,-1,-1,-1,-1,-1,-1,-1,-1,-1,-1,-1,-1,-1,-1,-1,-1,-1,-1,-1,-1,-1],"split_conditions":[1.1873431E0,4.7840808E-2,-1.9765876E-1,-4.635653E-2,-1.1483387E0,3.1361926E0,-3.5775343E-1,-6.5403396E-1,3.492727E0,-1.2208972E0,-8.61128E-1,1.6009669E0,5.9306526E-1,-6.2531286E-1,-2.9124147E-1,-9.306632E-1,1.2453715E0,7.3818225E-1,1.6454164E0,-1.4370611E0,8.968591E-2,9.0930367E-1,7.564276E-1,4.912588E0,1.9550513E-1,-2.4891567E-1,8.897759E-1,1.512068E0,3.1068413E0,4.1609016E-1,-7.548535E-1,1.3342704E0,3.492727E0,3.8032768E0,2.5556087E-1,2.5556087E-1,-1.9765876E-1,2.2724947E-1,6.943448E-1,4.1609016E-1,1.3603402E0,-6.836171E-3,9.7867477E-1,3.8032768E0,1.1120231E0,1.705906E-1,3.1361926E0,4.978322E-1,3.270174E-1,1.0026954E0,9.074854E-1,2.3264813E-1,1.6009669E0,5.357364E-1,-8.643141E-2,4.7840808E-2,4.4234455E-1,-5.8298707E-1,-5.2554494E-1,-2.8289452E-1,1.3342704E0,4.4234455E-1,-5.7705575E-1,-1.8034211E-1,1.5803435E-1,2.4552988E-1,-8.30439E-2,-2.0727374E-1,7.444479E-2,2.5827795E-1,-5.9972633E-2,1.6873354E-1,1.2907484E-2,4.467602E-2,-7.526206E-2,3.4238815E-1,5.841512E-2,-2.1651448E-1,6.911207E-2,3.7704405E-1,-1.270816E-2,-4.335082E-2,-2.1488708E-1,5.6035346E-1,7.911951E-2,-2.3927972E-1,-4.7135595E-2,1.4163597E-1,-1.7615196E-1,-1.1415976E-1,-2.0419396E-2,-2.8282022E-3,1.013686E-1,-1.4584301E-2,-1.2859617E-1,2.9847315E-1,5.7308085E-2,-3.0739206E-1,-9.3363926E-2,8.4600694E-2,-2.1102418E-1,-1.6606542E-1,9.042095E-2,1.1769624E-1,5.301955E-1,1.9944882E-1,-1.09220564E-1,-1.4156905E-1,1.8492016E-1,3.1236234E-1,7.435333E-3,6.1951424E-3,3.366E-1,8.5420914E-2,-2.3930915E-1,8.925084E-2,-2.4526802E-1,2.1623331E-1,9.157098E-3],"split_indices":[6,5,5,3,3,8,3,3,1,3,3,0,3,3,3,3,0,3,0,3,0,4,0,2,3,3,0,0,10,5,0,0,1,12,4,4,5,3,3,5,11,0,0,12,0,5,8,3,3,4,3,0,0,4,0,5,4,3,3,0,0,4,0,0,0,0,0,0,0,0,0,0,0,0,0,0,0,0,0,0,0,0,0,0,0,0,0,0,0,0,0,0,0,0,0,0,0,0,0,0,0,0,0,0,0,0,0,0,0,0,0,0,0,0,0,0,0,0,0],"split_type":[0,0,0,0,0,0,0,0,0,0,0,0,0,0,0,0,0,0,0,0,0,0,0,0,0,0,0,0,0,0,0,0,0,0,0,0,0,0,0,0,0,0,0,0,0,0,0,0,0,0,0,0,0,0,0,0,0,0,0,0,0,0,0,0,0,0,0,0,0,0,0,0,0,0,0,0,0,0,0,0,0,0,0,0,0,0,0,0,0,0,0,0,0,0,0,0,0,0,0,0,0,0,0,0,0,0,0,0,0,0,0,0,0,0,0,0,0,0,0],"sum_hessian":[1.7916986E3,9.619106E2,8.29788E2,2.425093E2,7.194013E2,9.863363E1,7.3115436E2,5.157998E1,1.9092932E2,1.665258E1,7.027487E2,8.460561E1,1.4028014E1,8.7154205E1,6.440002E2,1.9667246E1,3.1912733E1,1.5176527E2,3.916404E1,1.2259834E1,4.392747E0,1.8218576E1,6.8453015E2,7.3111305E1,1.1494314E1,8.874929E0,5.153085E0,4.2106792E1,4.5047417E1,1.1373754E1,6.326264E2,8.672376E0,1.099487E1,1.8725372E1,1.3187361E1,8.148762E1,7.027766E1,3.338684E1,5.7771955E0,6.8524137E0,5.4074206E0,1.0210553E0,3.3716915E0,1.154838E1,6.670197E0,2.920747E2,3.924554E2,6.443055E1,8.680751E0,6.9888167E0,4.5054975E0,2.147852E0,6.727077E0,4.0668697E0,1.0862154E0,3.0019415E1,1.2087378E1,3.36158E1,1.1431617E1,4.244192E0,7.129561E0,6.5746546E0,6.2605176E2,5.9390655E0,2.7333102E0,9.510594E0,1.4842763E0,1.7375183E1,1.3501908E0,2.9619012E0,1.0225459E1,1.3698549E1,6.778907E1,3.1876682E1,3.8400974E1,8.694514E0,2.469233E1,4.4362206E0,1.3409749E0,2.053639E0,4.7987747E0,3.4099343E0,1.9974865E0,1.3787228E0,1.9929687E0,1.0303296E1,1.2450846E0,3.6540527E0,3.016144E0,4.897368E1,2.4310104E2,3.696269E2,2.282853E1,3.5540367E1,2.8890182E1,4.3022118E0,4.3785386E0,5.5462503E0,1.442566E0,3.3340454E0,1.1714522E0,5.703786E0,1.0232913E0,1.9974288E0,2.0694408E0,4.162373E0,2.585704E1,3.1814554E0,8.905923E0,3.6202269E0,2.9995571E1,3.7151299E0,7.7164874E0,5.216709E0,1.9128518E0,2.0678723E0,4.5067825E0,5.8783784E0,6.201734E2],"tree_param":{"num_deleted":"0","num_feature":"13","num_nodes":"119","size_leaf_vector":"1"}},{"base_weights":[-2.762697E-3,-3.5081408E-3,1.712801E-1,1.8489079E-1,-5.7439776E-3,-1.1474347E-1,6.401504E-1,2.359705E-1,-6.6686505E-3,-5.524932E-1,8.814991E-2,-1.0838721E-1,4.5690796E-1,-3.5175171E-1,-3.7193366E-3,-2.127325E-1,-6.337074E-3,3.8966027E-1,-2.927727E-1,2.9673302E-1,-5.692689E-1,-5.098834E-1,2.6586163E-1,6.924927E-1,-6.131564E-3,-1.5973437E-1,8.586859E-2,-3.4824049E-3,-2.1759151E-1,-2.4064289E-1,1.2649986E-2,1.526021E-1,-4.4307645E-2,3.6717278E-1,-1.1378238E-1,3.8516985E-3,-1.0622612E-2],"categories":[],"categories_nodes":[],"categories_segments":[],"categories_sizes":[],"default_left":[0,0,0,0,0,0,0,0,0,0,0,0,0,0,0,0,0,0,0,0,0,0,0,0,0,0,0,0,0,0,0,0,0,0,0,0,0],"id":41,"left_children":[1,3,-1,5,7,9,11,-1,13,15,17,19,-1,21,23,-1,-1,-1,25,-1,27,29,31,33,35,-1,-1,-1,-1,-1,-1,-1,-1,-1,-1,-1,-1],"loss_changes":[7.6737225E-1,7.543658E-1,0E0,2.9387102E0,1.3007848E0,1.2490898E0,5.775278E0,